// This file is computer-generated by onnx2c 
// (TODO: add creating command line here)
// (TODO: print creation date here )

// ONNX model:
// produced by pytorch, version 1.12.0
// ONNX IR version: 10
// Model documentation: 
/*

*/

#include <float.h>
#include <math.h>
#include <stdbool.h>
#include <stdint.h>
#include <string.h>
#define MAX(X,Y) ( X > Y ? X : Y)
#define MIN(X,Y) ( X < Y ? X : Y)
#define CLIP(X,L) ( MAX(MIN(X,L), -L) )

static const float tensor_conv1_weight[64][1][5][5] = 
{
  {
    {
      {0.089828699827194213867f, -0.17170156538486480713f, -0.23334111273288726807f, 0.23690398037433624268f, 0.11007133126258850098f},
      {0.062461219727993011475f, 0.18415792286396026611f, -0.34047007560729980469f, -0.060003332793712615967f, -0.11732368916273117065f},
      {-0.085482604801654815674f, 0.088971540331840515137f, -0.44059875607490539551f, 0.020468009635806083679f, -0.11018086224794387817f},
      {0.11265798658132553101f, -0.064634203910827636719f, 0.010810955427587032318f, -0.079008586704730987549f, 0.054572537541389465332f},
      {0.25603577494621276855f, 0.21118175983428955078f, -0.21082094311714172363f, 0.14295622706413269043f, -0.066761083900928497314f}
    }
  },
  {
    {
      {-0.014669345691800117493f, -0.048258408904075622559f, 0.093159377574920654297f, 0.30389580130577087402f, -0.0056770723313093185425f},
      {0.30941364169120788574f, 0.012432904914021492004f, 0.093424625694751739502f, -0.47216960787773132324f, 0.014979311265051364899f},
      {0.10781244188547134399f, 0.13759511709213256836f, -0.17419856786727905273f, 0.24739198386669158936f, -0.010736317373812198639f},
      {-0.19846644997596740723f, -0.013126597739756107330f, 0.11493054032325744629f, -0.16986045241355895996f, -0.12432549893856048584f},
      {-0.0067981150932610034943f, -0.17470580339431762695f, -0.078349336981773376465f, -0.18304547667503356934f, 0.19151408970355987549f}
    }
  },
  {
    {
      {0.34846073389053344727f, 0.065866939723491668701f, 0.079975835978984832764f, 0.082092173397541046143f, -0.10329824686050415039f},
      {0.026647146791219711304f, 0.018102461472153663635f, 0.063423618674278259277f, -0.20335665345191955566f, -0.097131535410881042480f},
      {-0.12276050448417663574f, 0.085755668580532073975f, 0.25327590107917785645f, 0.071808129549026489258f, -0.025719506666064262390f},
      {0.47401618957519531250f, 0.010618126951158046722f, 0.26552593708038330078f, 0.033036995679140090942f, 0.12238693237304687500f},
      {-0.25360143184661865234f, -0.24449273943901062012f, 0.12496456503868103027f, -0.15498661994934082031f, 0.059725891798734664917f}
    }
  },
  {
    {
      {0.086945571005344390869f, -0.00091216515284031629562f, 0.31366938352584838867f, -0.041802126914262771606f, -0.078500524163246154785f},
      {0.25099343061447143555f, -0.13696134090423583984f, -0.22734767198562622070f, 0.019915072247385978699f, 0.20156039297580718994f},
      {-0.11839096993207931519f, -0.030018268153071403503f, -0.056827984750270843506f, 0.035651911050081253052f, 0.083899579942226409912f},
      {0.12747438251972198486f, -0.018942678347229957581f, 0.060713123530149459839f, 0.34704816341400146484f, -0.11901225149631500244f},
      {-0.10590279102325439453f, 0.037167202681303024292f, -0.064702868461608886719f, 0.20666000247001647949f, -0.50777286291122436523f}
    }
  },
  {
    {
      {-0.21523906290531158447f, -0.0080767488107085227966f, -0.026809765025973320007f, 0.12892410159111022949f, 0.20940828323364257812f},
      {-0.12009147554636001587f, -0.0039282632060348987579f, 0.045036129653453826904f, -0.092315524816513061523f, 0.13191875815391540527f},
      {0.013780450448393821716f, 0.10385473072528839111f, 0.035571224987506866455f, -0.082097873091697692871f, -0.28374460339546203613f},
      {-0.073282912373542785645f, -0.014364806003868579865f, -0.025341963395476341248f, 0.093182168900966644287f, -0.076972156763076782227f},
      {0.014884785749018192291f, 0.37192076444625854492f, 0.38486087322235107422f, 0.050275098532438278198f, 0.015159154310822486877f}
    }
  },
  {
    {
      {-0.16544826328754425049f, 0.18125618994235992432f, -0.19816374778747558594f, 0.052110105752944946289f, -0.15466856956481933594f},
      {-0.28695711493492126465f, 0.073686681687831878662f, 0.19029606878757476807f, 0.010353845544159412384f, 0.30089309811592102051f},
      {-0.036423832178115844727f, 0.22323548793792724609f, -0.069291301071643829346f, -0.044518228620290756226f, 0.15483078360557556152f},
      {0.036408420652151107788f, -0.13186584413051605225f, 0.28572583198547363281f, -0.039402343332767486572f, 0.26945742964744567871f},
      {0.073224149644374847412f, 0.32301574945449829102f, -0.10596401244401931763f, 0.024597758427262306213f, -0.25879138708114624023f}
    }
  },
  {
    {
      {-0.34684780240058898926f, 0.060219373553991317749f, -0.10010360181331634521f, 0.018049515783786773682f, 0.10910408943891525269f},
      {0.24681620299816131592f, -0.16739381849765777588f, 0.19210989773273468018f, -0.46101519465446472168f, -0.27290314435958862305f},
      {-0.23281387984752655029f, 0.15761311352252960205f, -0.18072825670242309570f, -0.43248772621154785156f, 0.11215690523386001587f},
      {-0.0039715343154966831207f, 0.11080850660800933838f, 0.059146665036678314209f, 0.17757417261600494385f, -0.026128839701414108276f},
      {0.11303275078535079956f, 0.19690960645675659180f, -0.032720498740673065186f, -0.21754024922847747803f, 0.052842222154140472412f}
    }
  },
  {
    {
      {0.18691386282444000244f, 0.49942332506179809570f, 0.17456953227519989014f, -0.14553259313106536865f, 0.025805966928601264954f},
      {-0.046523954719305038452f, -0.084815382957458496094f, 0.090353049337863922119f, -0.25403469800949096680f, 0.14806421101093292236f},
      {0.23006355762481689453f, -0.18854078650474548340f, -0.045621842145919799805f, -0.012335174717009067535f, -0.34636983275413513184f},
      {0.058962073177099227905f, -0.090255849063396453857f, 0.16056421399116516113f, 0.16108910739421844482f, -0.097493067383766174316f},
      {0.040431000292301177979f, -0.0089793056249618530273f, -0.13106669485569000244f, 0.0046507655642926692963f, -0.19573816657066345215f}
    }
  },
  {
    {
      {-0.094336986541748046875f, 0.28310748934745788574f, -0.20281678438186645508f, 0.21182706952095031738f, 0.38280504941940307617f},
      {0.13353405892848968506f, -0.16906158626079559326f, -0.059493005275726318359f, 0.17514728009700775146f, -0.24163003265857696533f},
      {0.18119996786117553711f, 0.13817082345485687256f, -0.036759536713361740112f, -0.0021901505533605813980f, 0.36024126410484313965f},
      {-0.045924890786409378052f, -0.28618329763412475586f, 0.048431131988763809204f, -0.22254751622676849365f, -0.064239598810672760010f},
      {-0.17664776742458343506f, -0.023648858070373535156f, 0.089111387729644775391f, 0.069442898035049438477f, -0.12060360610485076904f}
    }
  },
  {
    {
      {0.010423314757645130157f, 0.0066157793626189231873f, -0.0043544843792915344238f, -0.14441996812820434570f, -0.090632654726505279541f},
      {0.16308760643005371094f, -0.21376506984233856201f, -0.014792430214583873749f, -0.044112231582403182983f, 0.21041129529476165771f},
      {-0.10002001374959945679f, 0.11108429729938507080f, -0.38849857449531555176f, 0.11719823628664016724f, -0.14932399988174438477f},
      {0.11234471946954727173f, -0.036443229764699935913f, -0.14086370170116424561f, 0.45187762379646301270f, 0.19816450774669647217f},
      {-0.18742366135120391846f, -0.059861358255147933960f, 0.053698889911174774170f, 0.081384479999542236328f, 0.24176870286464691162f}
    }
  },
  {
    {
      {-0.049799822270870208740f, -0.10772338509559631348f, 0.15741147100925445557f, 0.31290778517723083496f, 0.012233444489538669586f},
      {0.11255711317062377930f, 0.067429922521114349365f, -0.19396902620792388916f, -0.077522948384284973145f, 0.071253567934036254883f},
      {0.033539909869432449341f, 0.16260181367397308350f, 0.10199388116598129272f, 0.25254908204078674316f, 0.044141411781311035156f},
      {-0.19329236447811126709f, 0.20424829423427581787f, -0.010902047157287597656f, -0.11624782532453536987f, -0.015984278172254562378f},
      {-0.40537810325622558594f, -0.045672357082366943359f, -0.028877165168523788452f, 0.18020832538604736328f, -0.24148106575012207031f}
    }
  },
  {
    {
      {0.13360144197940826416f, 0.34008920192718505859f, 0.22252564132213592529f, -0.18327404558658599854f, -0.089805856347084045410f},
      {0.022194502875208854675f, 0.085258424282073974609f, -0.22728860378265380859f, 0.040435116738080978394f, 0.20973363518714904785f},
      {-0.071188926696777343750f, 0.22590483725070953369f, 0.17229406535625457764f, -0.30917942523956298828f, 0.40781074762344360352f},
      {-0.32487356662750244141f, -0.050971020013093948364f, -0.15135328471660614014f, -0.15038366615772247314f, -0.059160299599170684814f},
      {0.044236235320568084717f, 0.024009700864553451538f, 0.087259449064731597900f, -0.039999749511480331421f, -0.0048991013318300247192f}
    }
  },
  {
    {
      {-0.40434637665748596191f, 0.073559395968914031982f, 0.10121379792690277100f, 0.22197750210762023926f, 0.10743198543787002563f},
      {0.19503764808177947998f, -0.040576107800006866455f, -0.10523183643817901611f, 0.072815783321857452393f, -0.046116620302200317383f},
      {-0.13919870555400848389f, -0.096333727240562438965f, 0.38397982716560363770f, 0.030718313530087471008f, -0.012038003653287887573f},
      {0.045943457633256912231f, -0.14549422264099121094f, 0.023592062294483184814f, 0.22017568349838256836f, 0.13907214999198913574f},
      {-0.31744068861007690430f, -0.0084095820784568786621f, 0.068058818578720092773f, -0.15855969488620758057f, 0.18548072874546051025f}
    }
  },
  {
    {
      {-0.032739672809839248657f, 0.18430370092391967773f, -0.082759983837604522705f, -0.076781034469604492188f, -0.080779358744621276855f},
      {0.17412911355495452881f, 0.31739079952239990234f, -0.021511821076273918152f, 0.073281422257423400879f, -0.35559797286987304688f},
      {-0.31432464718818664551f, -0.10371216386556625366f, -0.014196320436894893646f, 0.41190019249916076660f, -0.089182987809181213379f},
      {-0.083928838372230529785f, -0.19855619966983795166f, -0.058599695563316345215f, 0.13875579833984375000f, 0.082094393670558929443f},
      {-0.19412849843502044678f, -0.010959636420011520386f, 0.17936207354068756104f, 0.38336956501007080078f, -0.14125570654869079590f}
    }
  },
  {
    {
      {0.093799598515033721924f, -0.072711959481239318848f, 0.034879904240369796753f, 0.23746758699417114258f, 0.075437031686305999756f},
      {0.18716578185558319092f, 0.13094766438007354736f, -0.063718616962432861328f, -0.016660066321492195129f, 0.10952114313840866089f},
      {0.13066932559013366699f, -0.10456062108278274536f, -0.044807951897382736206f, 0.0035825392697006464005f, -0.036238189786672592163f},
      {0.21246029436588287354f, -0.24173134565353393555f, -0.38065531849861145020f, -0.038703061640262603760f, 0.34729111194610595703f},
      {0.29742535948753356934f, 0.30482521653175354004f, 0.045366894453763961792f, -0.029354816302657127380f, -0.17803022265434265137f}
    }
  },
  {
    {
      {0.18822823464870452881f, -0.10690716654062271118f, -0.20126335322856903076f, -0.13386411964893341064f, -0.17038047313690185547f},
      {0.29641419649124145508f, -0.33172452449798583984f, 0.19191388785839080811f, -0.28108176589012145996f, -0.27764925360679626465f},
      {0.20729523897171020508f, 0.12563475966453552246f, 0.16307026147842407227f, 0.27606278657913208008f, 0.047564722597599029541f},
      {-0.052638921886682510376f, -0.094489626586437225342f, -0.38526734709739685059f, -0.18882293999195098877f, 0.12768279016017913818f},
      {0.17626781761646270752f, 0.00044037715997546911240f, -0.10609935224056243896f, 0.066352359950542449951f, 0.11252713203430175781f}
    }
  },
  {
    {
      {0.12913066148757934570f, 0.045575737953186035156f, -0.056102130562067031860f, 0.43661451339721679688f, -0.16932010650634765625f},
      {0.42530757188796997070f, -0.20661191642284393311f, 0.19420921802520751953f, 0.34950029850006103516f, 0.099443919956684112549f},
      {0.16542805731296539307f, -0.28090140223503112793f, -0.034253463149070739746f, -0.32028833031654357910f, 0.0021840366534888744354f},
      {-0.11800985783338546753f, 0.32842516899108886719f, 0.24357184767723083496f, 0.070157639682292938232f, 0.036771804094314575195f},
      {0.062744930386543273926f, 0.13396011292934417725f, -0.054149623960256576538f, 0.049867652356624603271f, 0.18090863525867462158f}
    }
  },
  {
    {
      {-0.059999942779541015625f, -0.57450515031814575195f, 0.12704981863498687744f, -0.063501022756099700928f, 0.14763477444648742676f},
      {0.043081894516944885254f, 0.30425325036048889160f, 0.095916427671909332275f, 0.014821416698396205902f, -0.021794727072119712830f},
      {-0.053103420883417129517f, -0.23100921511650085449f, -0.0088629713281989097595f, 0.30398428440093994141f, 0.20044459402561187744f},
      {0.17503204941749572754f, -0.061521582305431365967f, 0.15805305540561676025f, 0.013862825930118560791f, 0.23362545669078826904f},
      {-0.20230051875114440918f, 0.26039856672286987305f, 0.028083814308047294617f, -0.30706799030303955078f, 0.0064950827509164810181f}
    }
  },
  {
    {
      {0.23663784563541412354f, 0.091769680380821228027f, -0.44061487913131713867f, 0.016492007300257682800f, -0.0087470626458525657654f},
      {0.25266423821449279785f, -0.16288951039314270020f, -0.014215348288416862488f, 0.13318350911140441895f, 0.20142981410026550293f},
      {-0.41664940118789672852f, -0.24651934206485748291f, 0.067587316036224365234f, 0.23382045328617095947f, 0.093575432896614074707f},
      {-0.14438599348068237305f, -0.037256747484207153320f, 0.26328468322753906250f, 0.065728105604648590088f, -0.23996175825595855713f},
      {-0.14054629206657409668f, 0.12608164548873901367f, 0.16946238279342651367f, -0.20307834446430206299f, -0.054510205984115600586f}
    }
  },
  {
    {
      {-0.014497343450784683228f, -0.47194090485572814941f, 0.094041511416435241699f, 0.16524158418178558350f, -0.24478252232074737549f},
      {-0.18661175668239593506f, -0.0063795447349548339844f, 0.20550324022769927979f, 0.013445211574435234070f, 0.012540485709905624390f},
      {-0.028203226625919342041f, 0.30865874886512756348f, 0.15048304200172424316f, 0.17498242855072021484f, -0.39124751091003417969f},
      {-0.0045328820124268531799f, -0.10447638481855392456f, 0.21268850564956665039f, 0.24643041193485260010f, -0.00093326886417344212532f},
      {0.099936805665493011475f, -0.038591429591178894043f, 0.046424269676208496094f, 0.11186931282281875610f, 0.034500401467084884644f}
    }
  },
  {
    {
      {-0.14314509928226470947f, 0.038627665489912033081f, -0.079317793250083923340f, 0.081493981182575225830f, -0.089613273739814758301f},
      {0.087823748588562011719f, 0.039287652820348739624f, -0.31195166707038879395f, -0.0065250922925770282745f, 0.16192388534545898438f},
      {0.23836703598499298096f, 0.052202828228473663330f, 0.30452355742454528809f, -0.11346705257892608643f, -0.012476014904677867889f},
      {0.21090607345104217529f, 0.11995930969715118408f, -0.019277205690741539001f, -0.082742460072040557861f, 0.22350651025772094727f},
      {-0.059134110808372497559f, -0.091617844998836517334f, -0.46613451838493347168f, 0.18852305412292480469f, -0.056589089334011077881f}
    }
  },
  {
    {
      {-0.023812159895896911621f, -0.16521418094635009766f, -0.073238179087638854980f, 0.21721360087394714355f, -0.14812737703323364258f},
      {0.12255239486694335938f, 0.14750841259956359863f, 0.054583717137575149536f, 0.089377142488956451416f, -0.13567836582660675049f},
      {0.21704815328121185303f, -0.14554736018180847168f, 0.10893838107585906982f, -0.021627306938171386719f, 0.27126803994178771973f},
      {0.41966307163238525391f, -0.054676096886396408081f, -0.099607348442077636719f, -0.11442058533430099487f, -0.28724381327629089355f},
      {0.10123973339796066284f, 0.12972582876682281494f, -0.049280546605587005615f, 0.041664823889732360840f, -0.18025009334087371826f}
    }
  },
  {
    {
      {-0.19814135134220123291f, 0.23940236866474151611f, 0.16233289241790771484f, 0.033254887908697128296f, -0.061000697314739227295f},
      {-0.26025912165641784668f, -0.15450739860534667969f, 0.011861055158078670502f, -0.18592381477355957031f, 0.049244310706853866577f},
      {-0.25872251391410827637f, -0.032239623367786407471f, 0.081266708672046661377f, 0.32565370202064514160f, 0.34314274787902832031f},
      {0.011681829579174518585f, 0.28327545523643493652f, 0.088086955249309539795f, 0.049984872341156005859f, 0.078373558819293975830f},
      {0.35986673831939697266f, -0.042766820639371871948f, 0.24304576218128204346f, 0.018695887178182601929f, 0.061396792531013488770f}
    }
  },
  {
    {
      {-0.027071321383118629456f, 0.11303780227899551392f, 0.44211903214454650879f, 0.29030054807662963867f, -0.15677569806575775146f},
      {-0.34831210970878601074f, -0.18903838098049163818f, -0.19596393406391143799f, 0.097807049751281738281f, -0.20714986324310302734f},
      {0.070164315402507781982f, -0.25013980269432067871f, -0.35429468750953674316f, 0.15886020660400390625f, -0.25629046559333801270f},
      {-0.13846790790557861328f, -0.17788141965866088867f, -0.066041462123394012451f, -0.14460065960884094238f, 0.21258518099784851074f},
      {-0.14893385767936706543f, 0.32117468118667602539f, 0.27216815948486328125f, 0.018217688426375389099f, 0.026325874030590057373f}
    }
  },
  {
    {
      {0.22016382217407226562f, 0.15193708240985870361f, 0.0059205577708780765533f, 0.17655147612094879150f, 0.11453045904636383057f},
      {-0.12824429571628570557f, 0.19460992515087127686f, 0.31898820400238037109f, -0.14311356842517852783f, -0.084697522222995758057f},
      {-0.028474515303969383240f, -0.064854256808757781982f, -0.13730502128601074219f, -0.33606886863708496094f, 0.28329998254776000977f},
      {0.43036901950836181641f, 0.26159182190895080566f, -0.32696530222892761230f, -0.021700814366340637207f, 0.12309660017490386963f},
      {-0.34479373693466186523f, -0.11689636856317520142f, 0.18872301280498504639f, 0.10696525871753692627f, -0.11993646621704101562f}
    }
  },
  {
    {
      {0.029366781935095787048f, -0.078626446425914764404f, 0.35296627879142761230f, 0.096920952200889587402f, -0.11193553358316421509f},
      {0.12555310130119323730f, 0.18616043031215667725f, -0.033765222877264022827f, -0.024685202166438102722f, -0.21436515450477600098f},
      {-0.14813359081745147705f, 0.066829942166805267334f, -0.17182633280754089355f, 0.13233685493469238281f, 0.29410782456398010254f},
      {-0.11232117563486099243f, 0.26445034146308898926f, -0.097805432975292205811f, 0.071292355656623840332f, -0.23009751737117767334f},
      {0.014467873610556125641f, -0.036760903894901275635f, 0.18979100883007049561f, -0.016265008598566055298f, -0.087784834206104278564f}
    }
  },
  {
    {
      {-0.15336555242538452148f, 0.20630536973476409912f, -0.19908484816551208496f, -0.23245410621166229248f, -0.048103492707014083862f},
      {0.14695426821708679199f, 0.20039297640323638916f, 0.020952304825186729431f, 0.079572126269340515137f, -0.18887077271938323975f},
      {0.092178709805011749268f, -0.052055191248655319214f, 0.11055662482976913452f, 0.17314334213733673096f, -0.19126930832862854004f},
      {-0.089953608810901641846f, 0.19732913374900817871f, 0.15067547559738159180f, -0.23696091771125793457f, 0.10125146061182022095f},
      {0.14093911647796630859f, 0.18771213293075561523f, 0.18246938288211822510f, 0.024215301498770713806f, -0.22541582584381103516f}
    }
  },
  {
    {
      {-0.096854783594608306885f, -0.0011026781285181641579f, -0.21274022758007049561f, 0.11047309637069702148f, 0.27840319275856018066f},
      {0.081796854734420776367f, 0.045940734446048736572f, -0.18962079286575317383f, 0.21681439876556396484f, 0.22578851878643035889f},
      {-0.24295276403427124023f, 0.074856221675872802734f, -0.12853391468524932861f, 0.070105619728565216064f, 0.17333838343620300293f},
      {0.069392278790473937988f, 0.028969580307602882385f, -0.10858820378780364990f, 0.14153809845447540283f, 0.22887751460075378418f},
      {0.16192437708377838135f, -0.10232419520616531372f, 0.071308247745037078857f, -0.22273045778274536133f, 0.15900887548923492432f}
    }
  },
  {
    {
      {0.019750967621803283691f, -0.10756712406873703003f, -0.40818026661872863770f, -0.18006968498229980469f, 0.10044937580823898315f},
      {-0.22314099967479705811f, -0.20449961721897125244f, -0.15415851771831512451f, 0.057429146021604537964f, -0.21992748975753784180f},
      {0.13709904253482818604f, 0.14791968464851379395f, -0.19485889375209808350f, 0.16110306978225708008f, 0.11482980102300643921f},
      {0.10277507454156875610f, 0.10463716089725494385f, -0.062219608575105667114f, 0.054537605494260787964f, 0.097909994423389434814f},
      {0.12111581116914749146f, -0.022670293226838111877f, 0.12496018409729003906f, 0.10526833683252334595f, -0.054502915591001510620f}
    }
  },
  {
    {
      {0.35470992326736450195f, 0.068369910120964050293f, -0.11247863620519638062f, 0.20305059850215911865f, 0.17735318839550018311f},
      {-0.21223197877407073975f, 0.0029873293824493885040f, -0.065132476389408111572f, 0.11955698579549789429f, 0.33206021785736083984f},
      {-0.096655793488025665283f, 0.19499053061008453369f, 0.0083877686411142349243f, 0.022152071818709373474f, 0.012936889193952083588f},
      {-0.033402610570192337036f, -0.27102366089820861816f, -0.10786884278059005737f, -0.069873400032520294189f, -0.14957238733768463135f},
      {-0.16503044962882995605f, 0.11065194010734558105f, 0.029933890327811241150f, 0.13220712542533874512f, 0.40239086747169494629f}
    }
  },
  {
    {
      {0.23219633102416992188f, 0.068954676389694213867f, 0.077933728694915771484f, -0.20274189114570617676f, 0.059697370976209640503f},
      {0.21798494458198547363f, 0.27521976828575134277f, 0.32464236021041870117f, -0.016301179304718971252f, 0.12682004272937774658f},
      {-0.020647933706641197205f, 0.14302404224872589111f, -0.085988946259021759033f, -0.14739717543125152588f, -0.18046021461486816406f},
      {0.041155088692903518677f, 0.094927728176116943359f, 0.13809840381145477295f, -0.29859957098960876465f, -0.029304014518857002258f},
      {0.12558193504810333252f, -0.28343996405601501465f, 0.45448830723762512207f, 0.18789336085319519043f, -0.10982818156480789185f}
    }
  },
  {
    {
      {0.29352757334709167480f, 0.19869445264339447021f, 0.092462360858917236328f, 0.22997620701789855957f, 0.028447132557630538940f},
      {-0.070074908435344696045f, -0.25685822963714599609f, 0.23628304898738861084f, 0.052407637238502502441f, -0.092923782765865325928f},
      {0.14151696860790252686f, 0.22285351157188415527f, 0.24001774191856384277f, 0.21166801452636718750f, -0.10146458446979522705f},
      {0.13485151529312133789f, -0.32188889384269714355f, -0.0079737212508916854858f, -0.039791733026504516602f, -0.24824842810630798340f},
      {-0.12899379432201385498f, 0.11338812112808227539f, -0.19498687982559204102f, -0.27982699871063232422f, -0.090130984783172607422f}
    }
  },
  {
    {
      {0.026072479784488677979f, -0.0059631243348121643066f, 0.14366501569747924805f, 0.012839082628488540649f, 0.056964885443449020386f},
      {0.083326950669288635254f, 0.039770044386386871338f, -0.33660063147544860840f, 0.17061556875705718994f, -0.22501392662525177002f},
      {-0.30679011344909667969f, -0.082805119454860687256f, -0.010092233307659626007f, -0.21693676710128784180f, -0.079559929668903350830f},
      {-0.066324330866336822510f, -0.15246564149856567383f, 0.27499377727508544922f, -0.19380906224250793457f, 0.14125250279903411865f},
      {0.17725197970867156982f, 0.061997421085834503174f, -0.23371957242488861084f, -0.11165528744459152222f, 0.13496124744415283203f}
    }
  },
  {
    {
      {0.31570869684219360352f, 0.0081655345857143402100f, -0.076966710388660430908f, 0.17980410158634185791f, 0.18769031763076782227f},
      {0.092691399157047271729f, -0.25973141193389892578f, -0.070449650287628173828f, 0.037670407444238662720f, -0.14084966480731964111f},
      {-0.025754224509000778198f, -0.011069683358073234558f, 0.041762821376323699951f, -0.017629755660891532898f, 0.046030994504690170288f},
      {0.0084738023579120635986f, -0.10208526253700256348f, 0.024855447933077812195f, 0.050232052803039550781f, 0.10832204669713973999f},
      {0.13481181859970092773f, -0.10758256167173385620f, 0.40122124552726745605f, 0.010443068109452724457f, -0.31714680790901184082f}
    }
  },
  {
    {
      {-0.16309966146945953369f, 0.20884223282337188721f, -0.060341697186231613159f, -0.052443031221628189087f, -0.036577310413122177124f},
      {0.16599394381046295166f, -0.0087088840082287788391f, -0.14655788242816925049f, 0.023959718644618988037f, 0.18770971894264221191f},
      {-0.084025882184505462646f, 0.38761803507804870605f, 0.010942826047539710999f, 0.12324186414480209351f, -0.23372212052345275879f},
      {0.38909673690795898438f, 0.035055980086326599121f, 0.046123221516609191895f, -0.080683499574661254883f, 0.041176062077283859253f},
      {-0.15451991558074951172f, -0.13441731035709381104f, 0.038487683981657028198f, -0.14499029517173767090f, 0.11522990465164184570f}
    }
  },
  {
    {
      {0.23931233584880828857f, 0.072189316153526306152f, -0.022587299346923828125f, 0.31063920259475708008f, -0.11657017469406127930f},
      {-0.13513365387916564941f, 0.14958781003952026367f, -0.10469886660575866699f, -0.070074126124382019043f, 0.099844001233577728271f},
      {-0.16053321957588195801f, -0.12796655297279357910f, -0.12145667523145675659f, 0.0052713630720973014832f, -0.31645292043685913086f},
      {0.14926208555698394775f, 0.26304975152015686035f, -0.16921004652976989746f, -0.12784865498542785645f, -0.27823039889335632324f},
      {0.26736640930175781250f, 0.040054764598608016968f, 0.054416127502918243408f, -0.065460674464702606201f, 0.20363263785839080811f}
    }
  },
  {
    {
      {-0.15682356059551239014f, -0.0045618535950779914856f, -0.15190635621547698975f, -0.034761495888233184814f, -0.018235564231872558594f},
      {0.098145842552185058594f, -0.10337670892477035522f, 0.15506626665592193604f, -0.095744013786315917969f, -0.11538041383028030396f},
      {-0.32890239357948303223f, -0.014819849282503128052f, 0.46626776456832885742f, 0.040285423398017883301f, -0.14951284229755401611f},
      {0.10388918220996856689f, 0.14266426861286163330f, -0.20195171236991882324f, -0.14203627407550811768f, -0.22274325788021087646f},
      {-0.088868342339992523193f, 0.20460748672485351562f, -0.0098207388073205947876f, -0.050404861569404602051f, 0.065843284130096435547f}
    }
  },
  {
    {
      {-0.060549180954694747925f, -0.10545327514410018921f, -0.16579647362232208252f, -0.075556732714176177979f, 0.22868457436561584473f},
      {-0.17364266514778137207f, 0.18221543729305267334f, 0.11286243796348571777f, -0.11121752113103866577f, 0.074992969632148742676f},
      {0.32966360449790954590f, -0.12284450232982635498f, 0.36353364586830139160f, 0.18830099701881408691f, 0.11325654387474060059f},
      {-0.23230005800724029541f, 0.073050662875175476074f, -0.067589528858661651611f, 0.0052519752644002437592f, -0.15360081195831298828f},
      {0.0060217129066586494446f, 0.046200115233659744263f, -0.064460858702659606934f, 0.016667271032929420471f, -0.042938128113746643066f}
    }
  },
  {
    {
      {-0.15136025846004486084f, 0.019407305866479873657f, -0.0034712241031229496002f, 0.19539846479892730713f, -0.045708946883678436279f},
      {-0.15994544327259063721f, -0.18170067667961120605f, -0.078498378396034240723f, 0.26943087577819824219f, 0.28529933094978332520f},
      {-0.26604440808296203613f, -0.18030527234077453613f, 0.19568809866905212402f, 0.061539843678474426270f, -0.076765395700931549072f},
      {0.20637595653533935547f, 0.23173096776008605957f, -0.094079375267028808594f, -0.35649919509887695312f, 0.052291035652160644531f},
      {0.13097943365573883057f, -0.10167365521192550659f, 0.072696492075920104980f, 0.27167767286300659180f, -0.070778742432594299316f}
    }
  },
  {
    {
      {-0.11842529475688934326f, 0.31973105669021606445f, -0.017067613080143928528f, 0.022955061867833137512f, -0.12823806703090667725f},
      {-0.024790761992335319519f, -0.10992122441530227661f, 0.12361412495374679565f, 0.029987355694174766541f, -0.094592861831188201904f},
      {0.079593569040298461914f, -0.12877096235752105713f, 0.059413891285657882690f, 0.14167460799217224121f, -0.044555522501468658447f},
      {-0.13930633664131164551f, 0.13274762034416198730f, -0.36685723066329956055f, 0.11693036556243896484f, 0.20997552573680877686f},
      {-0.039371002465486526489f, 0.14134986698627471924f, -0.029935505241155624390f, 0.13522985577583312988f, 0.27181518077850341797f}
    }
  },
  {
    {
      {-0.033664964139461517334f, 0.0069971354678273200989f, -0.092565760016441345215f, 0.13904768228530883789f, -0.22236871719360351562f},
      {0.052028868347406387329f, 0.21939113736152648926f, 0.089418202638626098633f, 0.0085180019959807395935f, 0.11220340430736541748f},
      {-0.024197205901145935059f, 0.32622799277305603027f, -0.10144470632076263428f, 0.012874515727162361145f, 0.061049301177263259888f},
      {-0.0073861284181475639343f, 0.022907366976141929626f, -0.15236191451549530029f, -0.046305064111948013306f, 0.0078497622162103652954f},
      {-0.14810824394226074219f, 0.026161242276430130005f, 0.32568126916885375977f, -0.27711778879165649414f, -0.10226471722126007080f}
    }
  },
  {
    {
      {0.27910178899765014648f, 0.025789307430386543274f, 0.062150582671165466309f, 0.015091557055711746216f, 0.24309657514095306396f},
      {-0.16928738355636596680f, 0.38200429081916809082f, 0.31235501170158386230f, -0.073131285607814788818f, 0.044623937457799911499f},
      {-0.22026768326759338379f, 0.0063753915019333362579f, 0.087755814194679260254f, -0.027839129790663719177f, -0.10044340044260025024f},
      {-0.28201821446418762207f, 0.019801322370767593384f, 0.012486034072935581207f, 0.085329458117485046387f, 0.20516048371791839600f},
      {0.092012338340282440186f, 0.29016590118408203125f, -0.23896174132823944092f, -0.14248389005661010742f, -0.016074091196060180664f}
    }
  },
  {
    {
      {-0.12825742363929748535f, 0.0028078230097889900208f, -0.17952603101730346680f, 0.035416241735219955444f, -0.25721386075019836426f},
      {-0.012622252106666564941f, 0.051255308091640472412f, 0.056717429310083389282f, 0.046230882406234741211f, -0.27153643965721130371f},
      {-0.034292347729206085205f, -0.082931168377399444580f, 0.14097990095615386963f, -0.17665275931358337402f, -0.044316299259662628174f},
      {0.26718795299530029297f, -0.29875087738037109375f, 0.18743225932121276855f, 0.11919267475605010986f, 0.15307068824768066406f},
      {0.28765383362770080566f, -0.23001100122928619385f, 0.23479400575160980225f, -0.0044808494858443737030f, 0.20824582874774932861f}
    }
  },
  {
    {
      {0.11937456578016281128f, 0.064593732357025146484f, 0.13888196647167205811f, -0.12324912846088409424f, 0.15874081850051879883f},
      {0.29038563370704650879f, 0.033241178840398788452f, 0.24463361501693725586f, -0.022256974130868911743f, 0.15699975192546844482f},
      {0.056480541825294494629f, 0.091762915253639221191f, 0.044184047728776931763f, 0.14608199894428253174f, 0.040045127272605895996f},
      {-0.10315217077732086182f, -0.27290910482406616211f, -0.0076099345460534095764f, 0.021533379331231117249f, 0.29095324873924255371f},
      {0.12256871908903121948f, -0.029025161638855934143f, 0.15276466310024261475f, 0.15273058414459228516f, 0.16717773675918579102f}
    }
  },
  {
    {
      {-0.14647081494331359863f, 0.075500272214412689209f, 0.0031087668612599372864f, -0.073775157332420349121f, 0.016531387344002723694f},
      {0.082418374717235565186f, 0.23398050665855407715f, -0.020371844992041587830f, 0.075442843139171600342f, 0.14869542419910430908f},
      {-0.073120668530464172363f, 0.10641726851463317871f, -0.091668039560317993164f, 0.19625565409660339355f, 0.060002714395523071289f},
      {0.14222840964794158936f, -0.31474781036376953125f, -0.046078018844127655029f, -0.26410543918609619141f, 0.0049860998988151550293f},
      {-0.0071442560292780399323f, 0.14789499342441558838f, 0.010479384101927280426f, -0.034198135137557983398f, 0.089999608695507049561f}
    }
  },
  {
    {
      {-0.035578228533267974854f, 0.15782862901687622070f, 0.045083828270435333252f, -0.00061077962163835763931f, -0.46902865171432495117f},
      {-0.020477140322327613831f, 0.37050721049308776855f, -0.31458380818367004395f, 0.17054420709609985352f, -0.081050388514995574951f},
      {0.28912091255187988281f, 0.17209890484809875488f, 0.18554064631462097168f, 0.00079026690218597650528f, 0.10069916397333145142f},
      {-0.12999841570854187012f, -0.059189390391111373901f, 0.016504419967532157898f, 0.25241157412528991699f, -0.28338047862052917480f},
      {0.20751810073852539062f, -0.18016134202480316162f, 0.17968615889549255371f, -0.32968884706497192383f, 0.17036606371402740479f}
    }
  },
  {
    {
      {-0.33461394906044006348f, 0.075157269835472106934f, 0.058196090161800384521f, -0.094203114509582519531f, 0.28270658850669860840f},
      {0.10829070955514907837f, 0.11027803272008895874f, -0.0062396274879574775696f, 0.062276609241962432861f, 0.097809821367263793945f},
      {0.0086094327270984649658f, -0.00023913680342957377434f, -0.34530949592590332031f, 0.17639243602752685547f, -0.17691381275653839111f},
      {0.26088231801986694336f, -0.19676303863525390625f, -0.11839656531810760498f, -0.066293694078922271729f, -0.34901446104049682617f},
      {0.086478881537914276123f, -0.19564867019653320312f, -0.18822433054447174072f, 0.25995984673500061035f, 0.15396401286125183105f}
    }
  },
  {
    {
      {-0.13025914132595062256f, 0.013152661733329296112f, 0.088141411542892456055f, 0.31660187244415283203f, -0.048671964555978775024f},
      {-0.12425791472196578979f, 0.052413895726203918457f, -0.084947161376476287842f, -0.50617218017578125000f, 0.18850579857826232910f},
      {0.20327427983283996582f, -0.15195503830909729004f, -0.18984270095825195312f, -0.0014737192541360855103f, 0.28860482573509216309f},
      {0.18226443231105804443f, -0.054883349686861038208f, 0.19810813665390014648f, -0.034797828644514083862f, 0.043907977640628814697f},
      {-0.11542797833681106567f, 0.077429108321666717529f, 0.15641865134239196777f, 0.071095615625381469727f, 0.22126826643943786621f}
    }
  },
  {
    {
      {-0.20503047108650207520f, -0.20645759999752044678f, 0.26580610871315002441f, 0.062189642339944839478f, -0.31099006533622741699f},
      {0.14711478352546691895f, -0.11271213740110397339f, 0.40141335129737854004f, 0.036440894007682800293f, 0.16423866152763366699f},
      {-0.18230870366096496582f, -0.37339541316032409668f, 0.097328267991542816162f, -0.089981213212013244629f, 0.21676357090473175049f},
      {-0.39632436633110046387f, -0.71461021900177001953f, 0.059058181941509246826f, 0.091845959424972534180f, -0.035477980971336364746f},
      {0.048338670283555984497f, -0.31840279698371887207f, -0.13184718787670135498f, 0.13951012492179870605f, -0.24574159085750579834f}
    }
  },
  {
    {
      {0.053784381598234176636f, 0.033745747059583663940f, 0.22937858104705810547f, 0.11651808768510818481f, 0.10978381335735321045f},
      {-0.039285164326429367065f, 0.10076382756233215332f, 0.0025258651003241539001f, 0.10421670973300933838f, -0.28445231914520263672f},
      {-0.22272177040576934814f, 0.51918721199035644531f, 0.21649123728275299072f, -0.35362827777862548828f, 0.026776684448122978210f},
      {0.024959228932857513428f, -0.079920984804630279541f, -0.26192143559455871582f, 0.26931968331336975098f, 0.093330197036266326904f},
      {0.033645197749137878418f, 0.13858234882354736328f, -0.10447581857442855835f, 0.22340960800647735596f, 0.025671008974313735962f}
    }
  },
  {
    {
      {-0.28569334745407104492f, -0.082048170268535614014f, 0.13848365843296051025f, 0.19732534885406494141f, -0.019306544214487075806f},
      {0.061838239431381225586f, -0.43739965558052062988f, 0.047567233443260192871f, -0.0043841125443577766418f, -0.095280349254608154297f},
      {0.074695602059364318848f, 0.28286355733871459961f, 0.10084985941648483276f, 0.082391917705535888672f, -0.13729541003704071045f},
      {-0.086056858301162719727f, 0.086199499666690826416f, 0.035326812416315078735f, -0.16291880607604980469f, 0.0061301225796341896057f},
      {0.10613070428371429443f, 0.10855937749147415161f, 0.22967779636383056641f, 0.064411096274852752686f, -0.15388163924217224121f}
    }
  },
  {
    {
      {0.052368592470884323120f, 0.045430872589349746704f, -0.27588352560997009277f, 0.21713311970233917236f, -0.45569536089897155762f},
      {-0.28829050064086914062f, 0.10164543986320495605f, 0.26224622130393981934f, 0.12905317544937133789f, -0.11268517374992370605f},
      {-0.11137095093727111816f, 0.0039100507274270057678f, -0.089239738881587982178f, 0.19707079231739044189f, 0.25724679231643676758f},
      {-0.020677972584962844849f, -0.082600004971027374268f, -0.15384195744991302490f, 0.023253973573446273804f, 0.16724914312362670898f},
      {0.030721031129360198975f, -0.16764324903488159180f, -0.17235206067562103271f, 0.14408019185066223145f, 0.028675399720668792725f}
    }
  },
  {
    {
      {0.14805372059345245361f, -0.079689666628837585449f, 0.054369065910577774048f, 0.047182459384202957153f, 0.29780390858650207520f},
      {-0.099942259490489959717f, 0.088468261063098907471f, -0.18795506656169891357f, 0.092657022178173065186f, -0.39236253499984741211f},
      {0.10236537456512451172f, 0.025646734982728958130f, -0.15760432183742523193f, 0.039211742579936981201f, 0.056094881147146224976f},
      {-0.14581257104873657227f, 0.12364900112152099609f, 0.33333268761634826660f, 0.0078890249133110046387f, 0.014086448587477207184f},
      {-0.084113433957099914551f, -0.20943278074264526367f, -0.093136012554168701172f, 0.36074346303939819336f, 0.34612914919853210449f}
    }
  },
  {
    {
      {0.15883387625217437744f, 0.061620555818080902100f, -0.041225079447031021118f, 0.25234422087669372559f, -0.069009229540824890137f},
      {0.23297229409217834473f, 0.14051483571529388428f, -0.22250756621360778809f, -0.24777728319168090820f, 0.015980303287506103516f},
      {-0.31213253736495971680f, 0.20147332549095153809f, 0.024618688970804214478f, 0.20916116237640380859f, -0.063136532902717590332f},
      {-0.12196218967437744141f, 0.26494288444519042969f, -0.11563089489936828613f, 0.033741842955350875854f, 0.17238096892833709717f},
      {0.15167210996150970459f, -0.047746866941452026367f, -0.34956100583076477051f, 0.12203529477119445801f, -0.15400990843772888184f}
    }
  },
  {
    {
      {-0.24345192313194274902f, -0.16737568378448486328f, -0.049016606062650680542f, 0.024619130417704582214f, -0.15517027676105499268f},
      {0.15762123465538024902f, 0.19825501739978790283f, 0.29951697587966918945f, 0.015374174341559410095f, 0.24200883507728576660f},
      {0.070019491016864776611f, 0.19933933019638061523f, -0.011171204969286918640f, -0.15542121231555938721f, -0.035330504179000854492f},
      {-0.12427821010351181030f, 0.077841445803642272949f, 0.13329507410526275635f, -0.23281337320804595947f, 0.097142167389392852783f},
      {-0.18647401034832000732f, -0.017404478043317794800f, 0.093445464968681335449f, 0.37416365742683410645f, 0.11879530549049377441f}
    }
  },
  {
    {
      {0.18101271986961364746f, -0.29558715224266052246f, -0.25169110298156738281f, 0.097382009029388427734f, -0.092886976897716522217f},
      {-0.14617697894573211670f, -0.21935752034187316895f, -0.22745075821876525879f, -0.17475490272045135498f, 0.11667098850011825562f},
      {-0.078023135662078857422f, 0.074913337826728820801f, 0.10161939263343811035f, -0.22255362570285797119f, -0.049782298505306243896f},
      {-0.30839771032333374023f, -0.17317773401737213135f, 0.079736560583114624023f, -0.21524237096309661865f, 0.24209855496883392334f},
      {-0.18065068125724792480f, -0.27804964780807495117f, 0.12574654817581176758f, 0.017125725746154785156f, 0.021768743172287940979f}
    }
  },
  {
    {
      {0.16186586022377014160f, -0.050559438765048980713f, -0.15086045861244201660f, -0.24329635500907897949f, -0.25836706161499023438f},
      {0.020085595548152923584f, -0.10367800295352935791f, -0.29526516795158386230f, -0.10817658156156539917f, 0.18488109111785888672f},
      {0.20322991907596588135f, 0.26716080307960510254f, -0.20759651064872741699f, 0.11811447143554687500f, 0.23591150343418121338f},
      {0.099219344556331634521f, 0.051751650869846343994f, 0.16566354036331176758f, 0.17666783928871154785f, 0.034881521016359329224f},
      {0.066853068768978118896f, 0.41316723823547363281f, -0.0080734901130199432373f, 0.12436188757419586182f, 0.016153814271092414856f}
    }
  },
  {
    {
      {-0.10326011478900909424f, -0.047072149813175201416f, -0.18956080079078674316f, 0.20126684010028839111f, 0.32483756542205810547f},
      {-0.29321131110191345215f, -0.016773695126175880432f, 0.0019033853895962238312f, -0.33595350384712219238f, 0.11652582138776779175f},
      {-0.12515130639076232910f, -0.019487645477056503296f, 0.21055671572685241699f, 0.10768003016710281372f, 0.093379475176334381104f},
      {0.012532870285212993622f, -0.11410411447286605835f, 0.071063525974750518799f, 0.33903640508651733398f, -0.27320006489753723145f},
      {0.31442338228225708008f, -0.19308793544769287109f, 0.044821768999099731445f, 0.27999386191368103027f, -0.11921070516109466553f}
    }
  },
  {
    {
      {-0.021204501390457153320f, -0.080239586532115936279f, 0.20459435880184173584f, 0.12324005365371704102f, 0.20977288484573364258f},
      {0.074730046093463897705f, -0.084791474044322967529f, 0.050501625984907150269f, 0.11860367655754089355f, 0.17972083389759063721f},
      {0.058497086167335510254f, 0.010101719759404659271f, -0.16707395017147064209f, 0.14637012779712677002f, 0.038971431553363800049f},
      {-0.14072801172733306885f, 0.024156577885150909424f, -0.28975695371627807617f, -0.14323112368583679199f, 0.11301819980144500732f},
      {0.35808339715003967285f, -0.32162213325500488281f, -0.076741956174373626709f, -0.38375532627105712891f, 0.057288102805614471436f}
    }
  },
  {
    {
      {-0.20581467449665069580f, 0.12149902433156967163f, -0.11210335791110992432f, 0.20874536037445068359f, 0.075950451195240020752f},
      {-0.21384567022323608398f, -0.013362394645810127258f, 0.28769716620445251465f, 0.39269146323204040527f, -0.097981669008731842041f},
      {0.080974340438842773438f, 0.36613780260086059570f, -0.35058486461639404297f, 0.099308744072914123535f, -0.10321326553821563721f},
      {-0.063456594944000244141f, 0.18335834145545959473f, 0.18203870952129364014f, 0.15446133911609649658f, -0.010566608048975467682f},
      {-0.11766560375690460205f, -0.21915215253829956055f, -0.19472524523735046387f, -0.28393569588661193848f, -0.33470287919044494629f}
    }
  },
  {
    {
      {-0.040757838636636734009f, 0.067260913550853729248f, -0.35736957192420959473f, 0.33729526400566101074f, 0.035908196121454238892f},
      {0.22096006572246551514f, 0.35359644889831542969f, -0.12595488131046295166f, 0.0039555937983095645905f, 0.11382658779621124268f},
      {0.29263091087341308594f, -0.076335430145263671875f, -0.0010374592384323477745f, -0.13107416033744812012f, -0.18903967738151550293f},
      {-0.23959259688854217529f, -0.052093666046857833862f, -0.25383779406547546387f, 0.39079061150550842285f, -0.14646004140377044678f},
      {-0.064798295497894287109f, 0.060147054493427276611f, 0.23197868466377258301f, 0.071310847997665405273f, -0.014920832589268684387f}
    }
  },
  {
    {
      {-0.061449430882930755615f, 0.38223007321357727051f, -0.041535694152116775513f, 0.15452116727828979492f, -0.13717164099216461182f},
      {-0.0016024851938709616661f, 0.12072234600782394409f, -0.0070069148205220699310f, -0.19124749302864074707f, -0.16203646361827850342f},
      {-0.15636406838893890381f, 0.033657062798738479614f, -0.060812320560216903687f, -0.0091216182336211204529f, 0.090341784060001373291f},
      {-0.079193197190761566162f, -0.21562197804450988770f, 0.23669472336769104004f, -0.30449208617210388184f, -0.16493795812129974365f},
      {0.041290991008281707764f, 0.15777125954627990723f, -0.18974989652633666992f, 0.076221659779548645020f, 0.13896656036376953125f}
    }
  },
  {
    {
      {0.065538749098777770996f, -0.047710765153169631958f, -0.16684579849243164062f, 0.060074716806411743164f, -0.14433716237545013428f},
      {0.10470325499773025513f, -0.15136748552322387695f, 0.31349429488182067871f, 0.10411267727613449097f, -0.0050740079022943973541f},
      {-0.12877386808395385742f, -0.17057611048221588135f, -0.28514522314071655273f, 0.10639227181673049927f, 0.070861347019672393799f},
      {-0.055460989475250244141f, 0.044592294842004776001f, 0.048034749925136566162f, 0.10028204321861267090f, -0.11485488712787628174f},
      {-0.089697353541851043701f, 0.054618135094642639160f, -0.21464987099170684814f, 0.13570570945739746094f, 0.13374784588813781738f}
    }
  },
  {
    {
      {-0.090392954647541046143f, 0.28606304526329040527f, -0.16138042509555816650f, 0.14403703808784484863f, 0.056881073862314224243f},
      {0.015626760199666023254f, 0.21909460425376892090f, -0.053276740014553070068f, -0.22754195332527160645f, 0.035288166254758834839f},
      {0.18381418287754058838f, -0.19402755796909332275f, 0.051483184099197387695f, 0.12997736036777496338f, -0.22460834681987762451f},
      {-0.0043123876675963401794f, 0.084079504013061523438f, 0.23223461210727691650f, 0.083877548575401306152f, 0.52747178077697753906f},
      {-0.019832978025078773499f, -0.28562730550765991211f, -0.060205325484275817871f, -0.17946481704711914062f, -0.22530010342597961426f}
    }
  }
};
static const float tensor_conv1_bias[64] = 
{0.012816570699214935303f, 0.081573516130447387695f, 0.022907428443431854248f, 0.0068161464296281337738f, -0.19692651927471160889f, -0.020936114713549613953f, 0.11872759461402893066f, 0.13638874888420104980f, 0.16250216960906982422f, -0.019938411191105842590f, 0.015840645879507064819f, 0.073515154421329498291f, -0.095546603202819824219f, -0.059371896088123321533f, 0.18998739123344421387f, 0.10853388905525207520f, -0.052985183894634246826f, -0.12429068237543106079f, 0.074401073157787322998f, -0.17666175961494445801f, 0.070306956768035888672f, -0.076652146875858306885f, -0.031996581703424453735f, 0.16477245092391967773f, -0.0013927574036642909050f, -0.048343814909458160400f, 0.18117922544479370117f, 0.098572902381420135498f, -0.12937498092651367188f, -0.033856943249702453613f, -0.011595090851187705994f, 0.024788692593574523926f, -0.10224806517362594604f, -0.059083204716444015503f, -0.025206921622157096863f, -0.12499738484621047974f, 0.16280138492584228516f, 0.18593867123126983643f, -0.056837510317564010620f, -0.031081063672900199890f, -0.13974165916442871094f, -0.048249430954456329346f, -0.11979755759239196777f, 0.054722834378480911255f, 0.13797062635421752930f, -0.059663332998752593994f, 0.18665316700935363770f, -0.028169473633170127869f, 0.068262979388236999512f, 0.091005869209766387939f, 0.10020599514245986938f, 0.11815045028924942017f, -0.17335821688175201416f, 0.17827257513999938965f, 0.083286717534065246582f, -0.19128842651844024658f, -0.039142251014709472656f, 0.18304210901260375977f, 0.16125598549842834473f, -0.12223433703184127808f, -0.020256921648979187012f, 0.16849465668201446533f, 0.17222972214221954346f, 0.047090001404285430908f};
static const float tensor_conv2_weight[64][64][3][3] = 
{
  {
    {
      {0.11958870291709899902f, -0.069340914487838745117f, -0.14949163794517517090f},
      {-0.084858678281307220459f, 0.044924110174179077148f, 0.029481716454029083252f},
      {0.071316771209239959717f, 0.045797694474458694458f, 0.092120654881000518799f}
    },
    {
      {-0.24589927494525909424f, -0.14166204631328582764f, -0.30999448895454406738f},
      {-0.30208110809326171875f, -0.0094730332493782043457f, -0.41346350312232971191f},
      {-0.31892034411430358887f, 0.12490630894899368286f, -0.19503098726272583008f}
    },
    {
      {0.26902523636817932129f, -0.098870754241943359375f, 0.025027910247445106506f},
      {-0.0085395164787769317627f, 0.072631120681762695312f, 0.13477626442909240723f},
      {0.035174395889043807983f, -0.20774398744106292725f, 0.14667510986328125000f}
    },
    {
      {-0.13599678874015808105f, 0.052131246775388717651f, 0.063431255519390106201f},
      {0.056281343102455139160f, -0.24467045068740844727f, -0.082626096904277801514f},
      {-0.099821753799915313721f, -0.17160227894783020020f, 0.051661647856235504150f}
    },
    {
      {-0.12947244942188262939f, -0.0076123331673443317413f, 0.23017348349094390869f},
      {-0.42681452631950378418f, -0.063700214028358459473f, -0.094382733106613159180f},
      {-0.37577670812606811523f, -0.10327792912721633911f, -0.017310021445155143738f}
    },
    {
      {0.24415114521980285645f, 0.10208912193775177002f, -0.0013977581402286887169f},
      {0.31074470281600952148f, 0.20495814085006713867f, 0.12906284630298614502f},
      {-0.0091267526149749755859f, 0.050720714032649993896f, 0.17687761783599853516f}
    },
    {
      {0.24171562492847442627f, -0.24261572957038879395f, -0.15665017068386077881f},
      {0.089677058160305023193f, 0.11666599661111831665f, 0.025627415627241134644f},
      {0.027704538777470588684f, -0.19188182055950164795f, 0.16700492799282073975f}
    },
    {
      {0.18412402272224426270f, -0.0020816931501030921936f, 0.00068145623663440346718f},
      {-0.0012011607177555561066f, 0.0025751020293682813644f, 0.0023795601446181535721f},
      {-0.0027681775391101837158f, -0.0019757747650146484375f, -0.00046562674106098711491f}
    },
    {
      {-0.0015572921838611364365f, -0.0015168351819738745689f, -0.0012232090812176465988f},
      {-0.00012295789201743900776f, 0.00015038238780107349157f, -0.0016299296403303742409f},
      {0.0012027892516925930977f, 0.00077971653081476688385f, 0.0015008285408839583397f}
    },
    {
      {0.098313018679618835449f, -0.0056434920988976955414f, 0.057524889707565307617f},
      {-0.082747042179107666016f, 0.043317500501871109009f, -0.078174516558647155762f},
      {-0.071528404951095581055f, 0.021634493023157119751f, -0.029659889638423919678f}
    },
    {
      {0.0012795403599739074707f, -0.00023179325216915458441f, -0.0020032860338687896729f},
      {0.0027377526275813579559f, 0.0021340348757803440094f, 0.0010329452343285083771f},
      {0.0039188507944345474243f, 0.0025923659559339284897f, 0.00064216868486255407333f}
    },
    {
      {-0.091399967670440673828f, 0.027125608175992965698f, 0.043262802064418792725f},
      {0.16246065497398376465f, 0.027308197692036628723f, 0.11628844588994979858f},
      {0.060715269297361373901f, -0.010324620641767978668f, -0.00033313277526758611202f}
    },
    {
      {0.0021168771199882030487f, 0.00019188622536603361368f, -0.0029153593350201845169f},
      {0.0057115666568279266357f, 0.0018212263239547610283f, -0.00022539086057804524899f},
      {0.0015810499899089336395f, -0.00022634524793829768896f, -0.00062866072403267025948f}
    },
    {
      {0.0033233503345400094986f, 0.00091662182239815592766f, -0.0046898680739104747772f},
      {0.0065619181841611862183f, 0.0020026068668812513351f, -0.0069848606362938880920f},
      {0.0018227649852633476257f, 0.0045899096876382827759f, -0.0030680608469992876053f}
    },
    {
      {0.00099997152574360370636f, 0.0012736591743305325508f, 0.0014885339187458157539f},
      {-0.00076421519042924046516f, -0.00089404580648988485336f, -0.00069672125391662120819f},
      {0.00092292571207508444786f, 0.0014017835492268204689f, -0.00023624229652341455221f}
    },
    {
      {-0.00095209560822695493698f, -0.0067720883525907993317f, -0.0051616197451949119568f},
      {-0.00086223386460915207863f, 0.0012212898582220077515f, -0.0030546197667717933655f},
      {-0.0022837782744318246841f, -0.00017072627088055014610f, 0.0055286423303186893463f}
    },
    {
      {0.0020684471819549798965f, 0.0024844261351972818375f, 0.00013971178850624710321f},
      {0.00012619799235835671425f, 2.9762353733531199396e-05f, 0.00015910634829197078943f},
      {0.00049296120414510369301f, -0.00024910480715334415436f, 0.00025169347645714879036f}
    },
    {
      {0.022013854235410690308f, -0.032543070614337921143f, -0.0066867810674011707306f},
      {0.041654277592897415161f, -0.026386531069874763489f, -0.041621860116720199585f},
      {0.016396719962358474731f, 0.035528413951396942139f, -0.0035691347438842058182f}
    },
    {
      {-0.0023239108268171548843f, -0.0053845555521547794342f, -0.0024971002712845802307f},
      {-0.00081804965157061815262f, -0.00068395794369280338287f, -0.0054997908882796764374f},
      {0.0049164872616529464722f, -0.0027310545556247234344f, -0.0045093679800629615784f}
    },
    {
      {0.013515606522560119629f, 0.0042993812821805477142f, 0.0022296740207821130753f},
      {0.00037113070720806717873f, 0.0091396253556013107300f, 0.0075866826809942722321f},
      {0.0071227382868528366089f, 0.0094732781872153282166f, 0.0066884811967611312866f}
    },
    {
      {0.00029783596983179450035f, 0.00091965205501765012741f, -0.0010462558129802346230f},
      {0.00094200455350801348686f, 0.0012739435769617557526f, 0.0036480764392763376236f},
      {-0.00072423694655299186707f, -0.00086360896239057183266f, 0.00026911584427580237389f}
    },
    {
      {-0.00074092420982196927071f, 0.0026968959718942642212f, 0.0030636203009635210037f},
      {0.00089801917783915996552f, 0.0010731479851529002190f, 0.0034346519969403743744f},
      {0.0021473565138876438141f, 0.0032997662201523780823f, 0.0051620686426758766174f}
    },
    {
      {0.0020667514763772487640f, 0.0022299939300864934921f, 0.0024389934260398149490f},
      {0.0013435547007247805595f, 0.0014094203943386673927f, 0.00017128953186329454184f},
      {0.0013279882259666919708f, 0.00043678394285961985588f, -0.00050855288282036781311f}
    },
    {
      {0.017795523628592491150f, 0.0074449805542826652527f, 0.013174505904316902161f},
      {0.030401321128010749817f, -0.0056185354478657245636f, -0.0052586118690669536591f},
      {0.0066666449420154094696f, -0.00073413865175098180771f, -0.018934683874249458313f}
    },
    {
      {-0.0029447330161929130554f, 0.087387308478355407715f, 0.043777912855148315430f},
      {0.064629256725311279297f, -0.060926619917154312134f, -0.055731944739818572998f},
      {0.045299470424652099609f, 0.0047907396219670772552f, 0.022029409185051918030f}
    },
    {
      {0.00028107585967518389225f, 0.0028265416622161865234f, 0.0032087485305964946747f},
      {0.0012773191556334495544f, 0.00078545062569901347160f, -0.00066072033951058983803f},
      {0.0025131488218903541565f, 0.0031403675675392150879f, 0.0011958879185840487480f}
    },
    {
      {0.0014302826020866632462f, 0.0020292960107326507568f, 0.0026272980030626058578f},
      {-0.00029227355844341218472f, 0.00051271170377731323242f, 0.0010016724700108170509f},
      {-0.00062227848684415221214f, 0.0011994908563792705536f, 0.0012243320234119892120f}
    },
    {
      {0.0017612909432500600815f, 0.0011028705630451440811f, -0.00070620671613141894341f},
      {3.1517050956608727574e-05f, -0.00059947237605229020119f, -0.0010411298135295510292f},
      {-5.4125376891533960588e-07f, -0.00035968222073279321194f, -0.0010462221689522266388f}
    },
    {
      {0.0016640729736536741257f, 0.0035513038747012615204f, 0.0089913811534643173218f},
      {0.024599330499768257141f, 0.024605251848697662354f, 0.016474517062306404114f},
      {-0.046480372548103332520f, -0.045327316969633102417f, -0.087430872023105621338f}
    },
    {
      {-6.4882595324888825417e-05f, -0.0010512809967622160912f, -0.0013115033507347106934f},
      {-0.00063661660533398389816f, -0.00068192038452252745628f, -0.00094046292360872030258f},
      {0.0026064731646329164505f, 0.0014588549965992569923f, 0.00085758627392351627350f}
    },
    {
      {0.0019480959745123982430f, 0.00033043255098164081573f, 0.00082460197154432535172f},
      {-0.00073387991869822144508f, -0.00012642602086998522282f, 0.00055784627329558134079f},
      {0.0019619003869593143463f, 0.0026920170057564973831f, 0.0027816938236355781555f}
    },
    {
      {-0.0026398836635053157806f, -0.0024995193816721439362f, 0.0010924313683062791824f},
      {0.00078507559373974800110f, 0.0024138330481946468353f, 0.0020513723138719797134f},
      {0.0019667563028633594513f, 0.0028509972617030143738f, 0.0039459178224205970764f}
    },
    {
      {-0.0019707800820469856262f, -0.00022732862271368503571f, 5.5267253628699108958e-05f},
      {0.0021822431590408086777f, 0.00011378772614989429712f, -8.7291402451228350401e-05f},
      {0.00014271562395151704550f, -0.00045385555131360888481f, 0.0000000000000000000f}
    },
    {
      {0.0010287578916177153587f, 0.0017197442939504981041f, 0.00067792308982461690903f},
      {0.00067822192795574665070f, -0.00019123341189697384834f, 0.00049935386050492525101f},
      {-0.00050041393842548131943f, 0.0015672297449782490730f, -8.2264283264521509409e-05f}
    },
    {
      {-0.0090648820623755455017f, -0.047858610749244689941f, -0.013970027677714824677f},
      {-0.020306296646595001221f, 0.013397858478128910065f, 0.039010185748338699341f},
      {-0.023827215656638145447f, 0.00090456224279478192329f, 0.015262702479958534241f}
    },
    {
      {-0.015920629724860191345f, 0.0048739281482994556427f, 0.034570559859275817871f},
      {-0.030749347060918807983f, -0.0036866066511720418930f, 0.029157839715480804443f},
      {-0.0088601503521203994751f, -0.0070954062975943088531f, -0.010656492784619331360f}
    },
    {
      {-0.014941607601940631866f, 0.056748010218143463135f, -0.014775672927498817444f},
      {0.018187133595347404480f, 0.021679839119315147400f, 0.029165422543883323669f},
      {0.043108336627483367920f, 0.058742668479681015015f, 0.15849244594573974609f}
    },
    {
      {-0.027672972530126571655f, -0.031140031293034553528f, -0.052528765052556991577f},
      {-0.024477502331137657166f, -0.0068384404294192790985f, -0.0051349834538996219635f},
      {0.025599069893360137939f, 0.045042917132377624512f, 0.067075416445732116699f}
    },
    {
      {0.0016301888972520828247f, 0.0011624617036432027817f, -0.00052666408009827136993f},
      {-0.0013373452238738536835f, -0.0020883304532617330551f, 0.00020649317593779414892f},
      {0.0029732615221291780472f, -9.5674913609400391579e-05f, -0.0037795547395944595337f}
    },
    {
      {0.00081393163418397307396f, 0.0018223313381895422935f, -7.0719856012146919966e-05f},
      {0.00088526087347418069839f, 0.00060593523085117340088f, -0.0016892041312530636787f},
      {0.0024432558566331863403f, 4.2415296775288879871e-05f, -0.00038221271825022995472f}
    },
    {
      {-0.014783425256609916687f, -0.016696004197001457214f, 0.013151329010725021362f},
      {-0.0024511888623237609863f, -0.020119776949286460876f, -0.033158812671899795532f},
      {0.040578946471214294434f, 0.017579635605216026306f, 0.027014084160327911377f}
    },
    {
      {0.0017169108614325523376f, -0.00039264687802642583847f, -0.00099547265563160181046f},
      {0.0022802662570029497147f, 0.00040270559838972985744f, -0.00063802587101235985756f},
      {0.0022599340882152318954f, 0.0024992094840854406357f, 0.00026067634462378919125f}
    },
    {
      {0.018022872507572174072f, 0.014938370324671268463f, 0.010887332260608673096f},
      {0.012325212359428405762f, 0.0057765003293752670288f, 0.0086489384993910789490f},
      {0.0017961951671168208122f, 0.0034961677156388759613f, 0.012415376491844654083f}
    },
    {
      {0.00037000153679400682449f, -0.00026757360319606959820f, -0.00036149105289950966835f},
      {0.00033811110188253223896f, 0.00012280422379262745380f, -0.00042353136814199388027f},
      {0.00038869190029799938202f, 0.00026678194990381598473f, 7.3305833211634308100e-05f}
    },
    {
      {-0.00092385592870414257050f, -0.0016583735123276710510f, -0.00057565426686778664589f},
      {-0.0011193029349669814110f, -0.0013563173124566674232f, -0.0016404142370447516441f},
      {0.0016670514596626162529f, 0.0019814004190266132355f, 0.0014059402747079730034f}
    },
    {
      {-0.00017674431728664785624f, 0.0025038209278136491776f, 0.0020444693509489297867f},
      {0.0026002875529229640961f, 0.0031079140026122331619f, 0.0048645432107150554657f},
      {0.0022787016350775957108f, 0.0038119317032396793365f, 0.0043426398187875747681f}
    },
    {
      {-0.0034740508999675512314f, -0.0051352884620428085327f, -0.0026421784423291683197f},
      {-0.010196838527917861938f, -0.0060100625269114971161f, -0.0068619758822023868561f},
      {-0.0062193064950406551361f, -0.0029944698326289653778f, -0.0039300378412008285522f}
    },
    {
      {0.0025259619578719139099f, 0.0025559561327099800110f, 0.0024487776681780815125f},
      {0.00063753098947927355766f, 0.00035804332583211362362f, -0.00041323126060888171196f},
      {0.00040058375452645123005f, -0.0021417709067463874817f, -0.0011378249619156122208f}
    },
    {
      {0.012220388278365135193f, 0.059883363544940948486f, 0.038485653698444366455f},
      {0.0062646870501339435577f, 0.055448833853006362915f, 0.13616459071636199951f},
      {-0.039049271494150161743f, -0.041724566370248794556f, -0.092634648084640502930f}
    },
    {
      {0.0016445645596832036972f, 0.0022888304665684700012f, 0.0010635940125212073326f},
      {0.00042617277358658611774f, 4.4744956539943814278e-05f, -0.00015666561375837773085f},
      {0.0013265975285321474075f, 0.00034009135561063885689f, 0.00024505006149411201477f}
    },
    {
      {-0.014918741770088672638f, -0.018617955967783927917f, 0.011687216348946094513f},
      {-0.012367200106382369995f, 0.00053109956206753849983f, 0.0087848147377371788025f},
      {-0.039959017187356948853f, -0.017715554684400558472f, 0.0066801276989281177521f}
    },
    {
      {-0.0033223144710063934326f, -0.0048692491836845874786f, -0.0083373412489891052246f},
      {0.0014807193074375391006f, -0.0031987451948225498199f, -0.0085231987759470939636f},
      {0.0064461268484592437744f, -0.00071069167461246252060f, -0.0038348971866071224213f}
    },
    {
      {0.0027284491807222366333f, 0.0010944865643978118896f, -0.00028229484451003372669f},
      {0.0023548263125121593475f, 0.00070127833168953657150f, 0.00096617272356525063515f},
      {3.2682339224265888333e-05f, 0.00030302398954518139362f, -0.00096818612655624747276f}
    },
    {
      {5.2735173085238784552e-05f, 0.00053817656589671969414f, 0.00038870360003784298897f},
      {0.0011831189040094614029f, 0.0025558625347912311554f, -0.00054215319687500596046f},
      {-0.00082340318476781249046f, -0.00072909600567072629929f, -0.00087904691463336348534f}
    },
    {
      {0.0032948337029665708542f, 0.00072058883961290121078f, -0.00036358973011374473572f},
      {-0.00018641292990650981665f, -0.00027279130881652235985f, -0.00045988292549736797810f},
      {0.0010600631358101963997f, 0.00028074224246665835381f, 0.00040822333539836108685f}
    },
    {
      {0.0000000000000000000f, 0.0000000000000000000f, 0.0000000000000000000f},
      {0.0000000000000000000f, 0.0000000000000000000f, 0.0000000000000000000f},
      {0.0000000000000000000f, 0.0000000000000000000f, 0.0000000000000000000f}
    },
    {
      {0.0019173769978806376457f, 0.0025764135643839836121f, 0.0030285650864243507385f},
      {0.00076088664354756474495f, 0.0017428923165425658226f, 0.0012977408478036522865f},
      {0.00066683074692264199257f, 0.00054646912030875682831f, 0.00019257195526733994484f}
    },
    {
      {0.0014837463386356830597f, 0.0022482427302747964859f, 0.00097127666231244802475f},
      {-0.00049788370961323380470f, 0.00077034340938553214073f, -0.00030948719359003007412f},
      {-0.00024908341583795845509f, -0.0013223568676039576530f, -0.00093574688071385025978f}
    },
    {
      {-0.0027811396867036819458f, -0.0026504017878323793411f, -0.0024301505181938409805f},
      {-0.00083818478742614388466f, -0.0012056160485371947289f, -0.0013087940169498324394f},
      {4.7919806092977523804e-05f, -8.4515297203324735165e-05f, -0.00068773108068853616714f}
    },
    {
      {-0.0028643724508583545685f, -0.0086104916408658027649f, -0.0067888018675148487091f},
      {0.010653854347765445709f, 0.014695592224597930908f, 0.0054937768727540969849f},
      {0.0062896395102143287659f, 0.0097271101549267768860f, 0.0049535613507032394409f}
    },
    {
      {0.064566142857074737549f, 0.099524356424808502197f, 0.019344225525856018066f},
      {0.00048976467223837971687f, 0.031865157186985015869f, 0.0068237767554819583893f},
      {-0.079739250242710113525f, -0.073126621544361114502f, 0.015681903809309005737f}
    },
    {
      {-0.012328703887760639191f, -0.0078983213752508163452f, 0.0022194283083081245422f},
      {-0.0019229853060096502304f, 0.0032604052685201168060f, -0.0015161344781517982483f},
      {0.0038130048196762800217f, -0.0070338174700736999512f, 0.0040639122016727924347f}
    },
    {
      {-0.0016741632716730237007f, -0.0032885535620152950287f, -0.0038407361134886741638f},
      {-0.0032634811941534280777f, -0.0027944471221417188644f, -0.0072344057261943817139f},
      {-6.0393733292585238814e-05f, -0.0039709554985165596008f, -0.0041400636546313762665f}
    },
    {
      {0.13165676593780517578f, -0.041108790785074234009f, -0.026992054656147956848f},
      {0.030255643650889396667f, 0.040742266923189163208f, 0.037813518196344375610f},
      {0.019809439778327941895f, -0.010014103725552558899f, 0.034699413925409317017f}
    }
  },
  {
    {
      {0.070178508758544921875f, 0.12786106765270233154f, 0.22208397090435028076f},
      {-0.060977969318628311157f, -0.024215092882513999939f, -0.13018737733364105225f},
      {-0.098066411912441253662f, 0.14115191996097564697f, -0.0057312045246362686157f}
    },
    {
      {-0.10506628453731536865f, 0.36935147643089294434f, 0.29845651984214782715f},
      {0.084112502634525299072f, 0.062989287078380584717f, -0.10560882091522216797f},
      {-0.15814054012298583984f, -0.15787653625011444092f, -0.57678467035293579102f}
    },
    {
      {-0.13535657525062561035f, -0.031648349016904830933f, -0.27049338817596435547f},
      {-0.25762817263603210449f, 0.036432355642318725586f, -0.092300929129123687744f},
      {0.017349282279610633850f, 0.13385841250419616699f, 0.025365317240357398987f}
    },
    {
      {-0.13750225305557250977f, 0.075145430862903594971f, 0.45464119315147399902f},
      {0.027684457600116729736f, 0.28527069091796875000f, -0.080677077174186706543f},
      {-0.076775819063186645508f, -0.084571294486522674561f, -0.083096154034137725830f}
    },
    {
      {-0.20213770866394042969f, -0.16004568338394165039f, 0.10064366459846496582f},
      {0.021014176309108734131f, 0.036327041685581207275f, -0.088894121348857879639f},
      {-0.38038083910942077637f, 0.29432642459869384766f, -0.039196111261844635010f}
    },
    {
      {-0.23211839795112609863f, 0.23231455683708190918f, -0.17340156435966491699f},
      {-0.051328912377357482910f, -0.15937583148479461670f, -0.10131460428237915039f},
      {-0.10963719338178634644f, -0.11519565433263778687f, -0.10465979576110839844f}
    },
    {
      {0.15960003435611724854f, 0.011308738030493259430f, -0.044814240187406539917f},
      {-0.031589228659868240356f, 0.0024288482964038848877f, -0.038527034223079681396f},
      {-0.32142174243927001953f, -0.19888408482074737549f, -0.040444198995828628540f}
    },
    {
      {-0.027470465749502182007f, -0.0061733629554510116577f, -0.0061903018504381179810f},
      {-0.0064942776225507259369f, -0.0065570008009672164917f, -0.0061429957859218120575f},
      {-0.0025341634172946214676f, -0.0022067534737288951874f, -0.00095702504040673375130f}
    },
    {
      {-0.0064545911736786365509f, -0.0061898007988929748535f, -0.0061749843880534172058f},
      {-0.0062555414624512195587f, -0.0060915616340935230255f, -0.0060851625166833400726f},
      {-0.0015512378886342048645f, -0.00056400190806016325951f, -0.00019760218856390565634f}
    },
    {
      {0.0000000000000000000f, 0.0000000000000000000f, 0.0000000000000000000f},
      {0.0000000000000000000f, 0.0000000000000000000f, 0.0000000000000000000f},
      {0.0000000000000000000f, 0.0000000000000000000f, 0.0000000000000000000f}
    },
    {
      {-0.0060429219156503677368f, -0.0059815379790961742401f, -0.0059422357007861137390f},
      {-0.0060270852409303188324f, -0.0058092549443244934082f, -0.0058197937905788421631f},
      {-0.00056081259390339255333f, -1.2878549568995367736e-05f, 0.00015393760986626148224f}
    },
    {
      {0.0000000000000000000f, 0.0000000000000000000f, 0.0000000000000000000f},
      {-9.6464930265938164666e-07f, 2.0275818314985372126e-05f, -4.2074762518495845143e-07f},
      {0.0000000000000000000f, 0.0000000000000000000f, 0.0000000000000000000f}
    },
    {
      {-0.0052110659889876842499f, -0.0054929791949689388275f, -0.0056842081248760223389f},
      {-0.0037632314488291740417f, -0.0048306286334991455078f, -0.0051509812474250793457f},
      {-6.4472646045032888651e-05f, 0.00073097861604765057564f, 0.00059472915017977356911f}
    },
    {
      {-0.00023355690063908696175f, -0.00053509301505982875824f, -0.0027251541614532470703f},
      {-0.0019114792812615633011f, -0.0012858272530138492584f, -0.0024375400971621274948f},
      {-0.00076200894545763731003f, 0.00027744605904445052147f, 0.00046608937554992735386f}
    },
    {
      {-0.0065093846060335636139f, -0.0063319378532469272614f, -0.0064146677032113075256f},
      {-0.0064869546331465244293f, -0.0061848219484090805054f, -0.0061567476950585842133f},
      {-0.0015205206582322716713f, 0.00060706754447892308235f, 0.0014951776247471570969f}
    },
    {
      {-0.0021204990334808826447f, -0.00093872955767437815666f, -0.0013113913591951131821f},
      {-0.0049736197106540203094f, -0.0045439433306455612183f, -0.0044173933565616607666f},
      {-0.0010918116895481944084f, -0.00097622250905260443687f, -2.0325425793998874724e-05f}
    },
    {
      {-0.0064450106583535671234f, -0.0061805732548236846924f, -0.0062416139990091323853f},
      {-0.0064377891831099987030f, -0.0060320780612528324127f, -0.0061051249504089355469f},
      {-3.1981839129002764821e-05f, -0.00019549117132555693388f, -0.00014017269131727516651f}
    },
    {
      {-0.0014306075172498822212f, -0.0046375626698136329651f, -0.0043016490526497364044f},
      {-6.2980958318803459406e-05f, -0.0031931949779391288757f, -0.00069661746965721249580f},
      {0.0000000000000000000f, 7.4600828986470801851e-12f, 0.0000000000000000000f}
    },
    {
      {-0.0039418255910277366638f, -0.0051014926284551620483f, -0.0052989311516284942627f},
      {-0.0043866722844541072845f, -0.0054558613337576389313f, -0.0059001841582357883453f},
      {-0.0016079765046015381813f, -0.0011780669447034597397f, -0.00065962428925558924675f}
    },
    {
      {-0.00042173551628366112709f, -0.0028481858316808938980f, -0.00094528298359364271164f},
      {-7.8361063060583546758e-06f, 0.00014090506010688841343f, -1.0556213965173810720e-05f},
      {-7.9701630966155789793e-06f, 0.00037843966856598854065f, 0.00012036046973662450910f}
    },
    {
      {-0.0059939813800156116486f, -0.0059462436474859714508f, -0.0058511239476501941681f},
      {-0.0055501949973404407501f, -0.0055313906632363796234f, -0.0053801573812961578369f},
      {0.00047222478315234184265f, -0.00045409140875563025475f, -0.00061317195650190114975f}
    },
    {
      {-0.0055076996795833110809f, -0.0053903213702142238617f, -0.0041569201275706291199f},
      {-0.0048111113719642162323f, -0.0049193524755537509918f, -0.0049211485311388969421f},
      {0.0012878535781055688858f, 0.0017355016898363828659f, 0.0011859249789267778397f}
    },
    {
      {-0.0052328016608953475952f, -0.0054804943501949310303f, -0.0056517296470701694489f},
      {-0.0033955646213144063950f, -0.0050196284428238868713f, -0.0053521050140261650085f},
      {0.0015515715349465608597f, 0.0022670433390885591507f, 0.0021121720783412456512f}
    },
    {
      {-0.0014770095003768801689f, -0.00044849523692391812801f, 0.00042568298522382974625f},
      {-0.0016719589475542306900f, -0.0022089174017310142517f, -0.0018217870965600013733f},
      {-0.0012244727695360779762f, 0.00049324973952025175095f, 0.00067048025084659457207f}
    },
    {
      {-0.00011080376862082630396f, -1.8868509869207628071e-05f, -1.9950961359427310526e-05f},
      {-3.0364404665306210518e-05f, 0.0000000000000000000f, 0.0000000000000000000f},
      {0.0000000000000000000f, 0.0000000000000000000f, 0.0000000000000000000f}
    },
    {
      {-0.0049588484689593315125f, -0.0054623605683445930481f, -0.0056981402449309825897f},
      {-0.0057785576209425926208f, -0.0055165593512356281281f, -0.0054493336938321590424f},
      {-0.00037349542253650724888f, 0.00049389310879632830620f, 0.00032068320433609187603f}
    },
    {
      {-0.0059212842024862766266f, -0.0056211762130260467529f, -0.0055425087921321392059f},
      {-0.0058422386646270751953f, -0.0056067747063934803009f, -0.0052853939123451709747f},
      {0.00072025007102638483047f, 0.0011039499659091234207f, 0.0014373901067301630974f}
    },
    {
      {-0.0061285891570150852203f, -0.0059777419082820415497f, -0.0060195839032530784607f},
      {-0.0057581057772040367126f, -0.0058379434049129486084f, -0.0059431791305541992188f},
      {-0.00067684496752917766571f, 0.00052994623547419905663f, 0.00080934062134474515915f}
    },
    {
      {0.0000000000000000000f, 0.0000000000000000000f, 0.0000000000000000000f},
      {0.0000000000000000000f, 0.0000000000000000000f, 0.0000000000000000000f},
      {0.0000000000000000000f, 0.0000000000000000000f, 0.0000000000000000000f}
    },
    {
      {-0.0060779894702136516571f, -0.0059152902103960514069f, -0.0058942204341292381287f},
      {-0.0059033483266830444336f, -0.0059113609604537487030f, -0.0060092834755778312683f},
      {-0.0021980158053338527679f, -0.0013945734826847910881f, -0.00098256871569901704788f}
    },
    {
      {-0.0066702305339276790619f, -0.0066336686722934246063f, -0.0062030586414039134979f},
      {-0.0064810039475560188293f, -0.0063226171769201755524f, -0.0058964523486793041229f},
      {-0.00017851711891125887632f, 0.00036831203033216297626f, -0.00020882145327050238848f}
    },
    {
      {-0.0066054407507181167603f, -0.0061121727339923381805f, -0.0060796234756708145142f},
      {-0.0062979473732411861420f, -0.0060297958552837371826f, -0.0060395617038011550903f},
      {-0.0026256109122186899185f, -0.0022240108810365200043f, -0.0011527783935889601707f}
    },
    {
      {0.0000000000000000000f, 0.0000000000000000000f, 0.0000000000000000000f},
      {0.0000000000000000000f, 0.0000000000000000000f, 4.4173089665255904634e-12f},
      {0.0000000000000000000f, 0.0000000000000000000f, 0.0000000000000000000f}
    },
    {
      {-0.0050874920561909675598f, -0.0054203728213906288147f, -0.0056722597219049930573f},
      {-0.0045505673624575138092f, -0.0052584488876163959503f, -0.0056633306667208671570f},
      {-0.00099881214555352926254f, 0.00018112026737071573734f, 0.00037513626739382743835f}
    },
    {
      {-0.0026569312904030084610f, -0.0011295403819531202316f, -0.00024369145103264600039f},
      {-7.5896138332365303825e-12f, -4.7520155931124463677e-05f, 3.2939846278168261051e-05f},
      {-4.9227814997720997781e-06f, 0.0000000000000000000f, 0.0000000000000000000f}
    },
    {
      {-4.2753453044497291557e-07f, -1.2389007679303176701e-05f, -1.1674547749862540513e-05f},
      {-0.00010060494969366118312f, -7.3577517468947917223e-05f, -5.9794121625600382686e-05f},
      {-5.8791763876797631383e-05f, -9.8535283541423268616e-06f, 8.9606429914956819971e-12f}
    },
    {
      {-0.00010760463919723406434f, -5.0046983233187347651e-05f, -5.4477855883305892348e-05f},
      {-0.00050294218817725777626f, -0.00063005427364259958267f, -0.00033099987194873392582f},
      {-1.0439557627250906080e-05f, -1.5644378436263650656e-05f, -2.6389074264443479478e-05f}
    },
    {
      {-0.0019866325892508029938f, -0.0026151000056415796280f, -0.00068233086494728922844f},
      {-0.0046077338047325611115f, -0.0051466007716953754425f, -0.0048123318701982498169f},
      {-7.7907925515319220722e-06f, -2.3574495571665465832e-05f, -6.2097176851239055395e-05f}
    },
    {
      {-0.0035613020882010459900f, -0.0047811903059482574463f, -0.0049157128669321537018f},
      {-0.0021055222023278474808f, -0.0048584504984319210052f, -0.0051861922256648540497f},
      {0.0013650982873514294624f, 0.0019203928532078862190f, 0.00061918754363432526588f}
    },
    {
      {-0.0025780366268008947372f, -0.0040386710315942764282f, -0.0050250524654984474182f},
      {-0.0030502607114613056183f, -0.0036930276546627283096f, -0.0040132105350494384766f},
      {-0.00044020707719027996063f, 0.00013826349459122866392f, 0.00050282897427678108215f}
    },
    {
      {-0.00022540836653206497431f, -0.00024098277208395302296f, -1.2054392755089793354e-05f},
      {-0.0014416970079764723778f, -0.00051586632616817951202f, -0.0019618340302258729935f},
      {0.0000000000000000000f, 0.0000000000000000000f, 0.0000000000000000000f}
    },
    {
      {-0.0063477549701929092407f, -0.0060668587684631347656f, -0.0059456261806190013885f},
      {-0.0061697037890553474426f, -0.0059269177727401256561f, -0.0058216536417603492737f},
      {-0.0020772491116076707840f, -0.0018653688021004199982f, 0.00057020189706236124039f}
    },
    {
      {0.0000000000000000000f, 0.0000000000000000000f, 0.0000000000000000000f},
      {-5.3100635867553425129e-12f, 2.3314605641644448042e-05f, 0.0000000000000000000f},
      {0.00028777759871445596218f, 0.00044728509965352714062f, -3.4032833355013281107e-05f}
    },
    {
      {-0.0065860929898917675018f, -0.0062192920595407485962f, -0.0062506129033863544464f},
      {-0.0064877667464315891266f, -0.0061573530547320842743f, -0.0060898610390722751617f},
      {-0.0017943256534636020660f, -0.00031454706913791596889f, 0.00030805313144810497761f}
    },
    {
      {-0.0061518698930740356445f, -0.0060686348006129264832f, -0.0059802001342177391052f},
      {-0.0061056078411638736725f, -0.0059364088810980319977f, -0.0058619845658540725708f},
      {-0.0013058165786787867546f, 0.00048546071047894656658f, 0.00090487144188955426216f}
    },
    {
      {-0.0037211307790130376816f, -0.0043349643237888813019f, -0.0048724063672125339508f},
      {-0.0053890026174485683441f, -0.0046980772167444229126f, -0.0046229646541178226471f},
      {-0.00099297543056309223175f, -0.00030241822241805493832f, -0.00011758766049752011895f}
    },
    {
      {-0.0060342587530612945557f, -0.0059313392266631126404f, -0.0055316742509603500366f},
      {-0.0059859850443899631500f, -0.0058235349133610725403f, -0.0057271365076303482056f},
      {0.00033079175045713782310f, 0.00077854620758444070816f, -0.00024534875410608947277f}
    },
    {
      {-0.0049469955265522003174f, -0.0056270407512784004211f, -0.0054947677999734878540f},
      {-0.0039560687728226184845f, -0.0046291342005133628845f, -0.0041674934327602386475f},
      {0.0017273095436394214630f, 0.0019917469471693038940f, 0.0010841330513358116150f}
    },
    {
      {0.0000000000000000000f, 2.1197647583903744817e-05f, 0.0000000000000000000f},
      {0.0000000000000000000f, -0.00010928740084636956453f, 0.0000000000000000000f},
      {0.0000000000000000000f, 0.0000000000000000000f, 0.0000000000000000000f}
    },
    {
      {-0.0065496456809341907501f, -0.0061793322674930095673f, -0.0059785530902445316315f},
      {-0.0063348910771310329437f, -0.0060060252435505390167f, -0.0057768253609538078308f},
      {-0.0016113891033455729485f, -0.00016206204600166529417f, 0.00095568614779040217400f}
    },
    {
      {0.00027585341013036668301f, 9.4371520390268415213e-05f, -0.00030949176289141178131f},
      {7.6335927587933838367e-05f, -0.0023829203564673662186f, -0.00047619620454497635365f},
      {0.00070059410063549876213f, 0.0010557753266766667366f, 0.0011213035322725772858f}
    },
    {
      {-0.0040063434280455112457f, -0.0050412295386195182800f, -0.0053427224047482013702f},
      {-0.0043815756216645240784f, -0.0047545465640723705292f, -0.0052095153369009494781f},
      {-0.00072253932012245059013f, -0.00078053394099697470665f, -0.00086733821080997586250f}
    },
    {
      {-0.0023019262589514255524f, -0.0020435538608580827713f, -0.0035735240671783685684f},
      {-0.00039597231079824268818f, 0.00010705170279834419489f, 0.0011438662186264991760f},
      {0.0013293565716594457626f, 0.00032756276777945458889f, -4.4606207666220143437e-05f}
    },
    {
      {-0.0060621728189289569855f, -0.0061440365388989448547f, -0.0060673737898468971252f},
      {-0.0062757860869169235229f, -0.0062254094518721103668f, -0.0060379947535693645477f},
      {-0.0025126261170953512192f, -0.0018828220199793577194f, -0.00051559600979089736938f}
    },
    {
      {-0.0062823542393743991852f, -0.0060053155757486820221f, -0.0057072439230978488922f},
      {-0.0059024309739470481873f, -0.0055131651461124420166f, -0.0054079559631645679474f},
      {0.0018444419838488101959f, 0.0018987433286383748055f, 0.00018837543029803782701f}
    },
    {
      {0.0000000000000000000f, 0.0000000000000000000f, 0.0000000000000000000f},
      {0.0000000000000000000f, 0.0000000000000000000f, 0.0000000000000000000f},
      {0.0000000000000000000f, 0.0000000000000000000f, 0.0000000000000000000f}
    },
    {
      {-0.0036542047746479511261f, -0.0038554118946194648743f, -0.0032630530185997486115f},
      {-0.00051162031013518571854f, -0.0016493594739586114883f, -0.00093692966038361191750f},
      {0.0017373716691508889198f, 0.0012344509596005082130f, 0.0014483958948403596878f}
    },
    {
      {-0.0058480640873312950134f, -0.0056730438955128192902f, -0.0056803189218044281006f},
      {-0.0054945168085396289825f, -0.0056202108971774578094f, -0.0057611805386841297150f},
      {0.0011543241562321782112f, 0.0015531105455011129379f, 0.00077328248880803585052f}
    },
    {
      {-0.0063548553735017776489f, -0.0061348197050392627716f, -0.0061846189200878143311f},
      {-0.0062493886798620223999f, -0.0059990319423377513885f, -0.0060561755672097206116f},
      {-0.0020855267066508531570f, -0.0015099850716069340706f, -0.00054162653395906090736f}
    },
    {
      {-0.0060195224359631538391f, -0.0056931870058178901672f, -0.0056559043005108833313f},
      {-0.0043032593093812465668f, -0.0046033407561480998993f, -0.0053323647007346153259f},
      {-2.7279315958916861007e-12f, 0.0000000000000000000f, -1.8426933820592239499e-05f}
    },
    {
      {-0.00085198588203638792038f, -0.0012670301366597414017f, -0.00077104050433263182640f},
      {-0.0029370989650487899780f, -0.0021011463832110166550f, -0.00052063557086512446404f},
      {-2.8708158424706198275e-05f, 2.0117104213568381965e-06f, 7.6660006016027182341e-05f}
    },
    {
      {-0.0027980981394648551941f, -0.0034110795240849256516f, -0.0042590051889419555664f},
      {-0.0058370274491608142853f, -0.0057428823783993721008f, -0.0054775234311819076538f},
      {-0.0023438523057848215103f, -0.0016232576454058289528f, -0.00024557235883548855782f}
    },
    {
      {-0.0048016491346061229706f, -0.0052374885417520999908f, -0.0054178154096007347107f},
      {-0.0049135098233819007874f, -0.0053259185515344142914f, -0.0055387564934790134430f},
      {-0.00047703812015242874622f, -0.00082222576020285487175f, -0.0013406579382717609406f}
    },
    {
      {-0.0016847994411364197731f, -0.0024725368712097406387f, -0.0035378772299736738205f},
      {-1.2635258826776407659e-05f, -1.0929901691270060837e-05f, 4.0352970245294272900e-06f},
      {0.0000000000000000000f, 0.0000000000000000000f, 0.0000000000000000000f}
    }
  },
  {
    {
      {0.014639252796769142151f, 0.17671126127243041992f, -0.048729158937931060791f},
      {0.028457038104534149170f, -0.18300163745880126953f, -0.18206089735031127930f},
      {-0.093749336898326873779f, -0.025604300200939178467f, 0.060560602694749832153f}
    },
    {
      {0.15873637795448303223f, -0.22205927968025207520f, -0.17484474182128906250f},
      {-0.031595133244991302490f, -0.10219401121139526367f, 0.29955804347991943359f},
      {-0.012341332621872425079f, 0.039205454289913177490f, 0.19429525732994079590f}
    },
    {
      {-0.024497358128428459167f, 0.16179369390010833740f, 0.072373673319816589355f},
      {-0.087593041360378265381f, 0.096725679934024810791f, 0.22997273504734039307f},
      {0.0075871977023780345917f, 0.17291134595870971680f, 0.026059333235025405884f}
    },
    {
      {-0.24774204194545745850f, 0.16508556902408599854f, -0.064978264272212982178f},
      {0.34674641489982604980f, 0.22357147932052612305f, -0.017956824973225593567f},
      {-0.024203091859817504883f, -0.025916408747434616089f, -0.17641580104827880859f}
    },
    {
      {0.15562641620635986328f, -0.18188053369522094727f, 0.018511660397052764893f},
      {-0.18847720324993133545f, 0.048353534191846847534f, -0.20857346057891845703f},
      {-0.17883771657943725586f, 0.25609672069549560547f, 0.094593212008476257324f}
    },
    {
      {0.070765487849712371826f, 0.023780530318617820740f, 0.097314633429050445557f},
      {-0.28893387317657470703f, 0.12875600159168243408f, 0.16270928084850311279f},
      {0.076428100466728210449f, -0.28548681735992431641f, -0.14902547001838684082f}
    },
    {
      {-0.091146618127822875977f, -0.32155141234397888184f, 0.36290660500526428223f},
      {0.29799723625183105469f, -0.098761372268199920654f, -0.14349943399429321289f},
      {-0.34486711025238037109f, 0.26511374115943908691f, 0.28875273466110229492f}
    },
    {
      {0.19120922684669494629f, 0.0017392603913322091103f, 0.00060923938872292637825f},
      {-0.00078566436422988772392f, 0.0024783608969300985336f, 0.0027908128686249256134f},
      {-0.00094540714053437113762f, 0.0028921458870172500610f, 0.0044609690085053443909f}
    },
    {
      {0.0014217636780813336372f, 0.0010378586594015359879f, 0.00065214809728786349297f},
      {0.0024896594695746898651f, 0.0021497793495655059814f, 0.0017088234890252351761f},
      {0.0034510223194956779480f, 0.0014700492611154913902f, 0.0021345342975109815598f}
    },
    {
      {0.060257229954004287720f, -0.076321013271808624268f, -0.029256572946906089783f},
      {0.0062802331522107124329f, -0.095025546848773956299f, 0.011879721656441688538f},
      {-0.096142709255218505859f, 0.013123950920999050140f, -0.017143461853265762329f}
    },
    {
      {0.0035674518439918756485f, 0.0038003826048225164413f, 0.0011917999945580959320f},
      {0.0059218779206275939941f, 0.0045835417695343494415f, 0.0029103502165526151657f},
      {0.0056089158169925212860f, 0.0045337961055338382721f, 0.0023244544863700866699f}
    },
    {
      {-0.049357067793607711792f, -0.052346203476190567017f, -0.0089720319956541061401f},
      {0.018022963777184486389f, -0.019813396036624908447f, -0.00014214334078133106232f},
      {-0.070044301450252532959f, -0.016760483384132385254f, -0.018968457356095314026f}
    },
    {
      {0.0064487229101359844208f, 0.0042873551137745380402f, 0.00083604711107909679413f},
      {0.0079156821593642234802f, 0.0056377369910478591919f, 0.00047145609278231859207f},
      {0.0084974672645330429077f, 0.0046474109403789043427f, 0.0018391569610685110092f}
    },
    {
      {0.012183543294668197632f, 0.0070248139090836048126f, -0.0093703018501400947571f},
      {0.0098544005304574966431f, 0.0071079977788031101227f, -0.0041863415390253067017f},
      {0.0053132614120841026306f, 0.0057947519235312938690f, 0.00018630111298989504576f}
    },
    {
      {0.0017046207794919610023f, 0.0020441387314349412918f, 0.0025990647263824939728f},
      {0.0022676086518913507462f, 0.0022538111079484224319f, 0.0030913879163563251495f},
      {0.0026041406672447919846f, 0.0028550324495881795883f, 0.0030775933992117643356f}
    },
    {
      {-0.0028673247434198856354f, -0.0030031495261937379837f, 0.0018772274488583207130f},
      {-0.010643296875059604645f, -0.0023850451689213514328f, 0.00040005653863772749901f},
      {-0.014052762649953365326f, -0.0056023984216153621674f, -0.0050635556690394878387f}
    },
    {
      {0.0032817644532769918442f, 0.0038071959279477596283f, 0.0038377775344997644424f},
      {0.0039946488104760646820f, 0.0044107073917984962463f, 0.0036537121050059795380f},
      {0.0045816334895789623260f, 0.0043832007795572280884f, 0.0037335050292313098907f}
    },
    {
      {0.028355902060866355896f, 0.019998572766780853271f, -0.012001739814877510071f},
      {0.036366291344165802002f, -0.014137943275272846222f, -0.026082679629325866699f},
      {0.012351591140031814575f, -0.020914398133754730225f, -0.044867698103189468384f}
    },
    {
      {0.0044237696565687656403f, 0.0031198363285511732101f, -0.0053189950995147228241f},
      {0.0063376305624842643738f, 0.00055689289001747965813f, -0.0083563895896077156067f},
      {0.0045321872457861900330f, -0.0060469331219792366028f, -0.0089100766927003860474f}
    },
    {
      {0.019250364974141120911f, 0.019182236865162849426f, 0.0068139848299324512482f},
      {0.016272155568003654480f, 0.016536584123969078064f, 0.0074515752494335174561f},
      {0.011479536071419715881f, 0.020875295624136924744f, -0.0079323202371597290039f}
    },
    {
      {0.00099172338377684354782f, 0.0026244996115565299988f, 0.0036358216311782598495f},
      {0.0017203954048454761505f, 0.0026804239023476839066f, 0.0039797429926693439484f},
      {0.0018192934803664684296f, 0.0014282395131886005402f, 0.0031004056800156831741f}
    },
    {
      {0.0014821031363680958748f, 0.0047385804355144500732f, 0.0058581270277500152588f},
      {0.0025319082196801900864f, 0.0053933700546622276306f, 0.0060448250733315944672f},
      {0.0033975527621805667877f, 0.0051850322633981704712f, 0.0057340441271662712097f}
    },
    {
      {0.0054838797077536582947f, 0.0050423271022737026215f, 0.0043726954609155654907f},
      {0.0056035765446722507477f, 0.0050006019882857799530f, 0.0037083248607814311981f},
      {0.0052281208336353302002f, 0.0047560576349496841431f, 0.0035445983521640300751f}
    },
    {
      {0.0031814668327569961548f, -0.010456919670104980469f, -0.015582906082272529602f},
      {0.0076182102784514427185f, -0.028672019019722938538f, -0.025664754211902618408f},
      {-0.0068647884763777256012f, -0.014353686012327671051f, -0.032393373548984527588f}
    },
    {
      {-0.055723693221807479858f, -0.10404827445745468140f, -0.016894575208425521851f},
      {-0.11614934355020523071f, -0.069324165582656860352f, 0.029326051473617553711f},
      {-0.072226896882057189941f, -0.016242353245615959167f, 0.011857432313263416290f}
    },
    {
      {0.0036815903149545192719f, 0.0037755281664431095123f, 0.0044643338769674301147f},
      {0.0047263982705771923065f, 0.0052547953091561794281f, 0.0045016831718385219574f},
      {0.0041963877156376838684f, 0.0061465688049793243408f, 0.0053274896927177906036f}
    },
    {
      {0.0031307721510529518127f, 0.0060832956805825233459f, 0.0054470691829919815063f},
      {0.0034125116653740406036f, 0.0054658423177897930145f, 0.0051064342260360717773f},
      {0.0026799910701811313629f, 0.0042084604501724243164f, 0.0049831350333988666534f}
    },
    {
      {0.0035395645536482334137f, 0.0022870397660881280899f, 0.0027326431591063737869f},
      {0.0039960006251931190491f, 0.0024342390242964029312f, 0.0023069845046848058701f},
      {0.0041430904529988765717f, 0.0022187845315784215927f, 0.0019627292640507221222f}
    },
    {
      {0.038125101476907730103f, 0.032945785671472549438f, 0.035369865596294403076f},
      {-0.011942291632294654846f, -0.016867572441697120667f, -0.0062294220551848411560f},
      {-0.050362735986709594727f, -0.067035794258117675781f, -0.067930921912193298340f}
    },
    {
      {0.0030276183970272541046f, 0.0017598886042833328247f, 0.0011965512530878186226f},
      {0.0039807823486626148224f, 0.0028903046622872352600f, 0.0027560461312532424927f},
      {0.0047466205433011054993f, 0.0033322772942483425140f, 0.0023394485469907522202f}
    },
    {
      {0.0025823456235229969025f, 0.0041218288242816925049f, 0.0042455368675291538239f},
      {0.0030455410014837980270f, 0.0048207333311438560486f, 0.0056269224733114242554f},
      {0.0032328264787793159485f, 0.0051671704277396202087f, 0.0055542942136526107788f}
    },
    {
      {0.00042872785707004368305f, 0.0020456220954656600952f, 0.0015044258907437324524f},
      {0.0029020418878644704819f, 0.0051079262048006057739f, 0.0041372771374881267548f},
      {0.0038557946681976318359f, 0.0055987634696066379547f, 0.0037307369057089090347f}
    },
    {
      {-0.00060070719337090849876f, -0.0020024767145514488220f, -0.0032680672593414783478f},
      {-0.0033358361106365919113f, -0.0073597668670117855072f, -0.0032605498563498258591f},
      {-0.0077567575499415397644f, -0.0074055641889572143555f, -0.0062366882339119911194f}
    },
    {
      {0.0031008203513920307159f, 0.0030175249557942152023f, 0.0025911747943609952927f},
      {0.0030225270893424749374f, 0.0032175835222005844116f, 0.0030940691940486431122f},
      {0.0040539749898016452789f, 0.0032647659536451101303f, 0.0031235292553901672363f}
    },
    {
      {-0.030262490734457969666f, -0.0084348348900675773621f, 0.026442732661962509155f},
      {-0.031075526028871536255f, -0.0062594297342002391815f, 0.034965146332979202271f},
      {-0.030365532264113426208f, -0.021381959319114685059f, -0.00080381310544908046722f}
    },
    {
      {-0.055189225822687149048f, -0.030447820201516151428f, 0.012991584837436676025f},
      {-0.034752991050481796265f, -0.015422381460666656494f, -0.0042238384485244750977f},
      {-0.020011836662888526917f, -0.0077366456389427185059f, -0.032084751874208450317f}
    },
    {
      {0.0063907797448337078094f, -0.0046904915943741798401f, 0.00054004695266485214233f},
      {-0.0078384960070252418518f, 6.3199644500855356455e-05f, -0.027957102283835411072f},
      {-0.0043448610231280326843f, -0.047049522399902343750f, -0.029381819069385528564f}
    },
    {
      {-0.025114532560110092163f, 0.0042959945276379585266f, -0.024479137733578681946f},
      {0.0098280739039182662964f, 0.029197705909609794617f, 0.0049258614890277385712f},
      {-0.022975390776991844177f, -0.020710222423076629639f, -0.012073222547769546509f}
    },
    {
      {0.0028561786748468875885f, 0.0033576013520359992981f, 0.0029197842814028263092f},
      {0.0060386215336620807648f, 0.0038407188840210437775f, 0.00076498347334563732147f},
      {0.0082837138324975967407f, 0.0029231875669211149216f, -0.0018257510382682085037f}
    },
    {
      {0.0048525095917284488678f, 0.0029610649216920137405f, 0.0023907436989247798920f},
      {0.0048267501406371593475f, 0.0045369765721261501312f, 0.0025364381726831197739f},
      {0.0049897478893399238586f, 0.0048322812654078006744f, 0.0031903197523206472397f}
    },
    {
      {-0.025952680036425590515f, 0.0078719379380345344543f, 0.016578169539570808411f},
      {-0.0014041963731870055199f, 0.0060538016259670257568f, 0.029578704386949539185f},
      {-0.019825898110866546631f, 0.0071136308833956718445f, 0.0015889329370111227036f}
    },
    {
      {0.0029324674978852272034f, 0.0035741548053920269012f, 0.0028772745281457901001f},
      {0.0040718824602663516998f, 0.0046480353921651840210f, 0.0040278178639709949493f},
      {0.0045642429031431674957f, 0.0054349107667803764343f, 0.0045264083892107009888f}
    },
    {
      {0.019935116171836853027f, 0.018113190308213233948f, 0.014502938836812973022f},
      {0.0046020033769309520721f, 0.010056884028017520905f, 0.0066866674460470676422f},
      {-0.0054247952066361904144f, 0.0021380016114562749863f, -0.00076137197902426123619f}
    },
    {
      {0.0037635259795933961868f, 0.0034186439588665962219f, 0.0029014819301664829254f},
      {0.0041695097461342811584f, 0.0040125972591340541840f, 0.0037013734690845012665f},
      {0.0040155574679374694824f, 0.0042046234011650085449f, 0.0038340839091688394547f}
    },
    {
      {0.0018811468034982681274f, 0.0021050893701612949371f, 0.0019299736013635993004f},
      {0.0033152019605040550232f, 0.0025000299792736768723f, 0.0031936834566295146942f},
      {0.0029279217123985290527f, 0.0026805934030562639236f, 0.0030115111730992794037f}
    },
    {
      {0.0037788245826959609985f, 0.0059814560227096080780f, 0.0064826286397874355316f},
      {0.0048222052864730358124f, 0.0064854347147047519684f, 0.0068532647565007209778f},
      {0.0027656189631670713425f, 0.0057977703399956226349f, 0.0078160883858799934387f}
    },
    {
      {-0.0064013493247330188751f, -0.0078047793358564376831f, -0.0061575621366500854492f},
      {-0.0049340147525072097778f, -0.0063904109410941600800f, -0.0047743585892021656036f},
      {-0.0055251340381801128387f, -0.0060201641172170639038f, -0.0047758794389665126801f}
    },
    {
      {0.0042860121466219425201f, 0.0037369027268141508102f, 0.0029942670371383428574f},
      {0.0037327664904296398163f, 0.0022130690049380064011f, 0.0033058929257094860077f},
      {0.0032119047828018665314f, 0.0027864773292094469070f, 0.0032407916150987148285f}
    },
    {
      {-0.039066459983587265015f, -0.079448685050010681152f, -0.024690218269824981689f},
      {-0.021729648113250732422f, 0.039264846593141555786f, -0.13114114105701446533f},
      {-0.013636220246553421021f, 0.11053916066884994507f, -0.22868603467941284180f}
    },
    {
      {0.0033777314238250255585f, 0.0033104941248893737793f, 0.0035693123936653137207f},
      {0.0032770084217190742493f, 0.0046172775328159332275f, 0.0042916215024888515472f},
      {0.0040065078064799308777f, 0.0050142509862780570984f, 0.0042401589453220367432f}
    },
    {
      {0.0013314300449565052986f, 0.030347557738423347473f, 0.029357179999351501465f},
      {-0.011173252947628498077f, 0.030479514971375465393f, -0.0042447354644536972046f},
      {0.011539732106029987335f, 0.028678856790065765381f, -0.043108448386192321777f}
    },
    {
      {0.0074857766740024089813f, -0.0022254253271967172623f, -0.0060345400124788284302f},
      {0.0057749520055949687958f, -0.00026607315521687269211f, -0.0032551297917962074280f},
      {0.0039675347506999969482f, 0.0014981840504333376884f, -0.0071316603571176528931f}
    },
    {
      {0.0057696150615811347961f, 0.0041086180135607719421f, 0.0029754873830825090408f},
      {0.0056269150227308273315f, 0.0045819762162864208221f, 0.0036434805952012538910f},
      {0.0055332481861114501953f, 0.0043735490180552005768f, 0.0040414975956082344055f}
    },
    {
      {0.0012880453141406178474f, 0.0018411169294267892838f, 0.0025489279069006443024f},
      {0.0020559269469231367111f, 0.0026482578832656145096f, 0.0031574405729770660400f},
      {0.0019414633279666304588f, 0.0027291087899357080460f, 0.0025215819478034973145f}
    },
    {
      {0.0045935362577438354492f, 0.0050381533801555633545f, 0.0041145621798932552338f},
      {0.0046223457902669906616f, 0.0050090625882148742676f, 0.0048983399756252765656f},
      {0.0043090446852147579193f, 0.0049540069885551929474f, 0.0041137300431728363037f}
    },
    {
      {0.0000000000000000000f, 0.0000000000000000000f, 0.0000000000000000000f},
      {0.0000000000000000000f, 0.0000000000000000000f, 0.0000000000000000000f},
      {0.0000000000000000000f, 0.0000000000000000000f, 0.0000000000000000000f}
    },
    {
      {0.0051561696454882621765f, 0.0054526133462786674500f, 0.0055205468088388442993f},
      {0.0039433022029697895050f, 0.0037835552357137203217f, 0.0048981108702719211578f},
      {0.0025910630356520414352f, 0.0031613847240805625916f, 0.0041537759825587272644f}
    },
    {
      {0.0051024779677391052246f, 0.0043655703775584697723f, 0.0021307952702045440674f},
      {0.0041318661533296108246f, 0.0035670492798089981079f, 0.0018012919463217258453f},
      {0.0037400543224066495895f, 0.0024969761725515127182f, 0.0012944315094500780106f}
    },
    {
      {-0.0019539606291800737381f, -0.0032751350663602352142f, -0.00072896829806268215179f},
